{"learner":{"attributes":{"scikit_learn":"{\"_estimator_type\": \"classifier\"}"},"feature_names":["rsi","macd","sma_10","sma_50","bb_width","volatility","lag_1_ret","lag_2_ret","vol_change","day_of_week","month"],"feature_types":["float","float","float","float","float","float","float","float","float","int","int"],"gradient_booster":{"model":{"cats":{"enc":[],"feature_segments":[],"sorted_idx":[]},"gbtree_model_param":{"num_parallel_tree":"1","num_trees":"100"},"iteration_indptr":[0,1,2,3,4,5,6,7,8,9,10,11,12,13,14,15,16,17,18,19,20,21,22,23,24,25,26,27,28,29,30,31,32,33,34,35,36,37,38,39,40,41,42,43,44,45,46,47,48,49,50,51,52,53,54,55,56,57,58,59,60,61,62,63,64,65,66,67,68,69,70,71,72,73,74,75,76,77,78,79,80,81,82,83,84,85,86,87,88,89,90,91,92,93,94,95,96,97,98,99,100],"tree_info":[0,0,0,0,0,0,0,0,0,0,0,0,0,0,0,0,0,0,0,0,0,0,0,0,0,0,0,0,0,0,0,0,0,0,0,0,0,0,0,0,0,0,0,0,0,0,0,0,0,0,0,0,0,0,0,0,0,0,0,0,0,0,0,0,0,0,0,0,0,0,0,0,0,0,0,0,0,0,0,0,0,0,0,0,0,0,0,0,0,0,0,0,0,0,0,0,0,0,0,0],"trees":[{"base_weights":[3.7667707E-8,-1.1135551E-1,7.428924E-2,-7.71354E-1,-9.298675E-2,3.0566687E-2,2.8774434E-1,-1.6446363E-2,-9.218751E-1,-2.2505503E-2,-1.4868955E-1,-5.6066528E-2,9.386921E-2,1.1231625E-1,3.559025E-1,5.236731E-1,-6.7255116E-1,-1.1664785E0,-5.61051E-1,6.501879E-2,-1.0076177E-1,-2.287817E-1,-7.79995E-2,-8.101693E-2,1.185134E-1,2.588043E-1,1.1001249E-2,-1.9050721E-2,3.6846343E-1,4.2025805E-1,8.928845E-2,-2.405005E-2,4.2070247E-2,-4.0322755E-2,1.18179945E-2,1.8620903E-2,-6.2395047E-2,-4.163139E-2,-2.5248298E-4,9.916077E-3,-5.193292E-3,-3.432108E-2,-3.4804305E-3,-1.3499049E-2,-2.295586E-3,-5.7446457E-2,-3.3781875E-3,-3.0714074E-2,-3.6434797E-3,-2.0545423E-2,7.302916E-3,1.4343782E-2,-3.2101113E-2,-6.466341E-3,3.4812074E-3,2.242523E-3,-4.0136743E-2,-3.0757079E-2,2.3246007E-2,2.7913181E-2,1.3694559E-2,1.761844E-2,-3.1247612E-3],"categories":[],"categories_nodes":[],"categories_segments":[],"categories_sizes":[],"default_left":[0,0,0,0,0,0,0,0,0,0,0,0,0,0,0,0,0,0,0,0,0,0,0,0,0,0,0,0,0,0,0,0,0,0,0,0,0,0,0,0,0,0,0,0,0,0,0,0,0,0,0,0,0,0,0,0,0,0,0,0,0,0,0],"id":0,"left_children":[1,3,5,7,9,11,13,15,17,19,21,23,25,27,29,31,33,35,37,39,41,43,45,47,49,51,53,55,57,59,61,-1,-1,-1,-1,-1,-1,-1,-1,-1,-1,-1,-1,-1,-1,-1,-1,-1,-1,-1,-1,-1,-1,-1,-1,-1,-1,-1,-1,-1,-1,-1,-1],"loss_changes":[1.0792442E2,6.322017E1,7.3024925E1,1.6032433E1,1.9942432E1,3.5631092E1,1.5866058E1,9.033041E0,9.736351E0,1.53756695E1,1.6047523E1,1.1959007E1,5.130475E1,1.2581413E1,1.6392982E1,4.873084E0,1.5900354E0,9.140434E0,7.4689674E0,2.3880302E1,2.1573807E1,1.0006355E1,1.6784168E1,1.0386233E1,5.0684314E0,3.1927406E1,2.0571783E1,1.2453437E1,1.2309513E1,1.5423416E1,7.50794E0,0E0,0E0,0E0,0E0,0E0,0E0,0E0,0E0,0E0,0E0,0E0,0E0,0E0,0E0,0E0,0E0,0E0,0E0,0E0,0E0,0E0,0E0,0E0,0E0,0E0,0E0,0E0,0E0,0E0,0E0,0E0,0E0],"parents":[2147483647,0,0,1,1,2,2,3,3,4,4,5,5,6,6,7,7,8,8,9,9,10,10,11,11,12,12,13,13,14,14,15,15,16,16,17,17,18,18,19,19,20,20,21,21,22,22,23,23,24,24,25,25,26,26,27,27,28,28,29,29,30,30],"right_children":[2,4,6,8,10,12,14,16,18,20,22,24,26,28,30,32,34,36,38,40,42,44,46,48,50,52,54,56,58,60,62,-1,-1,-1,-1,-1,-1,-1,-1,-1,-1,-1,-1,-1,-1,-1,-1,-1,-1,-1,-1,-1,-1,-1,-1,-1,-1,-1,-1,-1,-1,-1,-1],"split_conditions":[2E0,-6.4845794E-1,1.1E1,-2.2791997E-2,-1.5052838E-3,2.6882803E-1,5.7614E0,8E0,-7.8307223E-1,1E0,1.2345738E-2,3.6209997E-2,3E0,4E0,8.3264E1,3.7407182E-2,1.2E1,5.560669E0,5.148015E-1,3.1430149E-3,-4.7619067E-2,1.1E1,-8.273379E-2,-5.291408E-2,3.962785E1,1.6055765E0,4E0,1.2911636E0,3.9025604E1,1.2E1,-6.044159E-3,-2.405005E-2,4.2070247E-2,-4.0322755E-2,1.18179945E-2,1.8620903E-2,-6.2395047E-2,-4.163139E-2,-2.5248298E-4,9.916077E-3,-5.193292E-3,-3.432108E-2,-3.4804305E-3,-1.3499049E-2,-2.295586E-3,-5.7446457E-2,-3.3781875E-3,-3.0714074E-2,-3.6434797E-3,-2.0545423E-2,7.302916E-3,1.4343782E-2,-3.2101113E-2,-6.466341E-3,3.4812074E-3,2.242523E-3,-4.0136743E-2,-3.0757079E-2,2.3246007E-2,2.7913181E-2,1.3694559E-2,1.761844E-2,-3.1247612E-3],"split_indices":[9,8,10,6,7,5,3,10,8,9,7,1,9,9,3,5,10,4,5,6,7,10,6,6,0,8,10,8,0,10,6,0,0,0,0,0,0,0,0,0,0,0,0,0,0,0,0,0,0,0,0,0,0,0,0,0,0,0,0,0,0,0,0],"split_type":[0,0,0,0,0,0,0,0,0,0,0,0,0,0,0,0,0,0,0,0,0,0,0,0,0,0,0,0,0,0,0,0,0,0,0,0,0,0,0,0,0,0,0,0,0,0,0,0,0,0,0,0,0,0,0,0,0,0,0,0,0,0,0],"sum_hessian":[1.3044145E4,5.2196577E3,7.8244873E3,1.4022737E2,5.07943E3,6.4952017E3,1.3292855E3,2.3496208E1,1.1673116E2,2.242888E3,2.8365422E3,2.7423074E3,3.7528943E3,3.7268985E2,9.5659564E2,1.2997903E1,1.0498306E1,6.823899E1,4.8492176E1,1.0588291E3,1.184059E3,1.3287855E3,1.5077567E3,2.3998628E3,3.4244473E2,1.2542976E3,2.4985967E3,2.4696014E2,1.2572971E2,7.7012573E2,1.8646991E2,2.999516E0,9.998386E0,9.2485075E0,1.2497983E0,3.2494757E0,6.498951E1,3.2244797E1,1.6247377E1,5.9165454E2,4.6717462E2,5.874052E1,1.1253184E3,1.0840751E3,2.4471051E2,1.3497822E1,1.4942589E3,3.4994354E1,2.3648684E3,1.6247377E1,3.2619736E2,1.2170536E3,3.7243988E1,7.358812E2,1.7627156E3,2.2921301E2,1.7747135E1,1.0748265E1,1.14981445E2,3.9493628E2,3.7518945E2,6.773907E1,1.1873084E2],"tree_param":{"num_deleted":"0","num_feature":"11","num_nodes":"63","size_leaf_vector":"1"}},{"base_weights":[-2.1111962E-5,-1.05839804E-1,7.05655E-2,-7.342938E-1,-8.836668E-2,2.9027304E-2,2.7333924E-1,-1.6066497E-2,-8.776209E-1,-2.1396205E-2,-1.4129938E-1,-3.081753E-2,1.13788195E-1,1.0657661E-1,3.3812332E-1,4.9878752E-1,-6.418815E-1,-1.1106601E0,-5.3419113E-1,6.177029E-2,-9.5763974E-2,-2.1739534E-1,-7.4144654E-2,-7.079827E-2,1.053888E-1,3.068799E-1,1.7397318E-2,-1.8252952E-2,3.499457E-1,3.814842E-1,-2.3471128E-2,-2.3156213E-2,4.015441E-2,-1.8403048E-2,-6.47345E-2,1.7906832E-2,-5.9428018E-2,-3.9650247E-2,-2.4058663E-4,9.52812E-3,-5.3481143E-3,-7.6473816E-3,9.974065E-3,-1.2827568E-2,-2.1813498E-3,-5.4853298E-2,-3.2095425E-3,-1.2169468E-2,-2.3317419E-3,1.7363959E-3,1.2593334E-2,2.8289406E-2,9.753088E-3,4.0898374E-3,-5.60929E-3,5.1107216E-3,-2.0086322E-2,-2.9367357E-2,2.2090094E-2,2.7585184E-2,1.4850371E-2,5.7999943E-3,-2.7652694E-2],"categories":[],"categories_nodes":[],"categories_segments":[],"categories_sizes":[],"default_left":[0,0,0,0,0,0,0,0,0,0,0,0,0,0,0,0,0,0,0,0,0,0,0,0,0,0,0,0,0,0,0,0,0,0,0,0,0,0,0,0,0,0,0,0,0,0,0,0,0,0,0,0,0,0,0,0,0,0,0,0,0,0,0],"id":1,"left_children":[1,3,5,7,9,11,13,15,17,19,21,23,25,27,29,31,33,35,37,39,41,43,45,47,49,51,53,55,57,59,61,-1,-1,-1,-1,-1,-1,-1,-1,-1,-1,-1,-1,-1,-1,-1,-1,-1,-1,-1,-1,-1,-1,-1,-1,-1,-1,-1,-1,-1,-1,-1,-1],"loss_changes":[9.744352E1,5.7257336E1,6.590616E1,1.4508194E1,1.800531E1,3.2955597E1,1.4337067E1,8.210096E0,8.817406E0,1.388372E1,1.4482601E1,2.0747458E1,5.0036816E1,1.135901E1,1.5024971E1,4.4691343E0,1.577332E0,8.3349E0,6.7728844E0,2.3052544E1,2.003648E1,9.035118E0,1.529076E1,1.2270082E1,8.940579E0,2.5806282E1,1.4984102E1,1.1495382E1,1.1171436E1,1.2133873E1,7.7080545E0,0E0,0E0,0E0,0E0,0E0,0E0,0E0,0E0,0E0,0E0,0E0,0E0,0E0,0E0,0E0,0E0,0E0,0E0,0E0,0E0,0E0,0E0,0E0,0E0,0E0,0E0,0E0,0E0,0E0,0E0,0E0,0E0],"parents":[2147483647,0,0,1,1,2,2,3,3,4,4,5,5,6,6,7,7,8,8,9,9,10,10,11,11,12,12,13,13,14,14,15,15,16,16,17,17,18,18,19,19,20,20,21,21,22,22,23,23,24,24,25,25,26,26,27,27,28,28,29,29,30,30],"right_children":[2,4,6,8,10,12,14,16,18,20,22,24,26,28,30,32,34,36,38,40,42,44,46,48,50,52,54,56,58,60,62,-1,-1,-1,-1,-1,-1,-1,-1,-1,-1,-1,-1,-1,-1,-1,-1,-1,-1,-1,-1,-1,-1,-1,-1,-1,-1,-1,-1,-1,-1,-1,-1],"split_conditions":[2E0,-6.4845794E-1,1.1E1,-2.2791997E-2,-1.5052838E-3,1.68918E1,5.7614E0,8E0,-7.8307223E-1,1E0,1.2345738E-2,3.3506002E-2,3E0,4E0,5.467885E-1,3.7407182E-2,4.7666264E1,5.560669E0,5.148015E-1,-1.4678977E-3,1.1E1,1.1E1,-8.273379E-2,-4.3241048E-1,4E0,4E0,8.482E1,3.9461353E-1,3.9025604E1,3E0,2.2963402E2,-2.3156213E-2,4.015441E-2,-1.8403048E-2,-6.47345E-2,1.7906832E-2,-5.9428018E-2,-3.9650247E-2,-2.4058663E-4,9.52812E-3,-5.3481143E-3,-7.6473816E-3,9.974065E-3,-1.2827568E-2,-2.1813498E-3,-5.4853298E-2,-3.2095425E-3,-1.2169468E-2,-2.3317419E-3,1.7363959E-3,1.2593334E-2,2.8289406E-2,9.753088E-3,4.0898374E-3,-5.60929E-3,5.1107216E-3,-2.0086322E-2,-2.9367357E-2,2.2090094E-2,2.7585184E-2,1.4850371E-2,5.7999943E-3,-2.7652694E-2],"split_indices":[9,8,10,6,7,3,3,10,8,9,7,1,9,9,1,5,0,4,5,1,10,10,6,8,9,10,2,8,0,9,2,0,0,0,0,0,0,0,0,0,0,0,0,0,0,0,0,0,0,0,0,0,0,0,0,0,0,0,0,0,0,0,0],"split_type":[0,0,0,0,0,0,0,0,0,0,0,0,0,0,0,0,0,0,0,0,0,0,0,0,0,0,0,0,0,0,0,0,0,0,0,0,0,0,0,0,0,0,0,0,0,0,0,0,0,0,0,0,0,0,0,0,0,0,0,0,0,0,0],"sum_hessian":[1.3043725E4,5.219101E3,7.824624E3,1.4007338E2,5.079028E3,6.4952207E3,1.329403E3,2.348743E1,1.1658595E2,2.2428179E3,2.83621E3,3.8075579E3,2.687663E3,3.726916E2,9.567113E2,1.2997473E1,1.0489958E1,6.812484E1,4.8461113E1,1.0588551E3,1.1839628E3,1.3285427E3,1.5076671E3,2.94391E3,8.636478E2,8.942013E2,1.7934618E3,2.469502E2,1.2574139E2,8.542216E2,1.0248973E2,2.998166E0,9.999306E0,8.4918585E0,1.9980996E0,3.2499626E0,6.487488E1,3.2213787E1,1.6247324E1,6.0042584E2,4.5842923E2,9.9226166E2,1.9170111E2,1.0838397E3,2.4470305E2,1.3476855E1,1.4941903E3,3.6042758E2,2.5834824E3,5.8343567E2,2.8021213E2,2.6848367E2,6.257176E2,1.1983044E3,5.9515735E2,1.8847472E2,5.847548E1,1.0741526E1,1.1499986E2,2.814909E2,5.7273065E2,8.1742874E1,2.0746859E1],"tree_param":{"num_deleted":"0","num_feature":"11","num_nodes":"63","size_leaf_vector":"1"}},{"base_weights":[-3.4831854E-5,-1.00607015E-1,6.704292E-2,-7.0017624E-1,-8.3970994E-2,2.758173E-2,2.5968596E-1,-1.798421E-2,-8.3649474E-1,-2.0324731E-2,-1.3428198E-1,-2.9277897E-2,1.0811106E-1,1.0119811E-1,3.212515E-1,4.7539172E-1,-6.1764824E-1,-1.0419346E0,-4.7180542E-1,-2.0064057E-1,1.3805395E-2,-2.0658839E-1,-7.048218E-2,-6.726724E-2,1.00131355E-1,2.9157224E-1,1.6526408E-2,-1.7402928E-2,3.324494E-1,3.895173E-1,1.03858456E-1,4.7548622E-2,-6.8107657E-3,2.986026E-3,-4.062259E-2,1.7224912E-2,-5.6026246E-2,9.308512E-3,-3.6112264E-2,-3.5371933E-2,-7.9568885E-3,5.0738347E-3,-3.0239502E-3,-1.4401317E-2,-6.3776313E-3,-5.245092E-2,-3.0493361E-3,-1.1565122E-2,-2.215281E-3,1.6497022E-3,1.196465E-2,2.688061E-2,9.265873E-3,8.798295E-3,-1.6824236E-3,2.0993722E-3,-3.73472E-2,-2.805137E-2,2.0997193E-2,2.5601735E-2,1.2994783E-2,6.4985077E-3,-5.1998015E-2],"categories":[],"categories_nodes":[],"categories_segments":[],"categories_sizes":[],"default_left":[0,0,0,0,0,0,0,0,0,0,0,0,0,0,0,0,0,0,0,0,0,0,0,0,0,0,0,0,0,0,0,0,0,0,0,0,0,0,0,0,0,0,0,0,0,0,0,0,0,0,0,0,0,0,0,0,0,0,0,0,0,0,0],"id":2,"left_children":[1,3,5,7,9,11,13,15,17,19,21,23,25,27,29,31,33,35,37,39,41,43,45,47,49,51,53,55,57,59,61,-1,-1,-1,-1,-1,-1,-1,-1,-1,-1,-1,-1,-1,-1,-1,-1,-1,-1,-1,-1,-1,-1,-1,-1,-1,-1,-1,-1,-1,-1,-1,-1],"loss_changes":[8.800174E1,5.2000565E1,5.9481316E1,1.3076027E1,1.6262375E1,2.974807E1,1.2947998E1,7.532326E0,8.297073E0,1.3811123E1,1.3071861E1,1.8729656E1,4.517121E1,1.0253807E1,1.4171898E1,4.198201E0,1.5631752E0,8.47168E0,7.4009094E0,7.3998575E0,1.2299095E1,8.518803E0,1.3952976E1,1.1081191E1,8.070812E0,2.3304024E1,1.4361446E1,1.0773736E1,1.0141759E1,1.1435333E1,7.0113025E0,0E0,0E0,0E0,0E0,0E0,0E0,0E0,0E0,0E0,0E0,0E0,0E0,0E0,0E0,0E0,0E0,0E0,0E0,0E0,0E0,0E0,0E0,0E0,0E0,0E0,0E0,0E0,0E0,0E0,0E0,0E0,0E0],"parents":[2147483647,0,0,1,1,2,2,3,3,4,4,5,5,6,6,7,7,8,8,9,9,10,10,11,11,12,12,13,13,14,14,15,15,16,16,17,17,18,18,19,19,20,20,21,21,22,22,23,23,24,24,25,25,26,26,27,27,28,28,29,29,30,30],"right_children":[2,4,6,8,10,12,14,16,18,20,22,24,26,28,30,32,34,36,38,40,42,44,46,48,50,52,54,56,58,60,62,-1,-1,-1,-1,-1,-1,-1,-1,-1,-1,-1,-1,-1,-1,-1,-1,-1,-1,-1,-1,-1,-1,-1,-1,-1,-1,-1,-1,-1,-1,-1,-1],"split_conditions":[2E0,-6.4845794E-1,1.1E1,-2.2791997E-2,-1.5052838E-3,1.68918E1,5.7614E0,8E0,5.4102757E1,-2.8926763E-1,1.2345738E-2,3.3506002E-2,3E0,4E0,7.009E1,-1.11345975E-2,-1.2861725E-2,5.7739325E0,1.4727878E-3,3.069228E1,1E0,1E0,-8.273379E-2,-4.3241048E-1,4E0,4E0,2.6050913E1,1.2911636E0,3.9025604E1,1.2E1,5.0817468E2,4.7548622E-2,-6.8107657E-3,2.986026E-3,-4.062259E-2,1.7224912E-2,-5.6026246E-2,9.308512E-3,-3.6112264E-2,-3.5371933E-2,-7.9568885E-3,5.0738347E-3,-3.0239502E-3,-1.4401317E-2,-6.3776313E-3,-5.245092E-2,-3.0493361E-3,-1.1565122E-2,-2.215281E-3,1.6497022E-3,1.196465E-2,2.688061E-2,9.265873E-3,8.798295E-3,-1.6824236E-3,2.0993722E-3,-3.73472E-2,-2.805137E-2,2.0997193E-2,2.5601735E-2,1.2994783E-2,6.4985077E-3,-5.1998015E-2],"split_indices":[9,8,10,6,7,3,3,10,0,8,7,1,9,9,2,1,7,4,6,0,9,9,6,8,9,10,3,8,0,10,2,0,0,0,0,0,0,0,0,0,0,0,0,0,0,0,0,0,0,0,0,0,0,0,0,0,0,0,0,0,0,0,0],"split_type":[0,0,0,0,0,0,0,0,0,0,0,0,0,0,0,0,0,0,0,0,0,0,0,0,0,0,0,0,0,0,0,0,0,0,0,0,0,0,0,0,0,0,0,0,0,0,0,0,0,0,0,0,0,0,0,0,0,0,0,0,0,0,0],"sum_hessian":[1.3042725E4,5.2182725E3,7.8244517E3,1.3977124E2,5.0785015E3,6.495127E3,1.3293247E3,2.3466661E1,1.1630458E2,2.2427275E3,2.835774E3,3.8074346E3,2.6876924E3,3.7265204E2,9.5667267E2,1.2987984E1,1.0478678E1,7.3207596E1,4.3096985E1,3.5616458E2,1.8865629E3,1.3282201E3,1.5075537E3,2.9437488E3,8.636859E2,8.942196E2,1.7934728E3,2.4693307E2,1.2571895E2,7.2744763E2,2.2922505E2,6.9943542E0,5.993629E0,2.4953399E0,7.983338E0,3.7456698E0,6.946193E1,1.1952099E1,3.1144884E1,2.5744795E1,3.304198E2,8.65144E2,1.0214189E3,6.528665E2,6.753536E2,1.3436198E1,1.4941176E3,3.603532E2,2.5833955E3,5.8344507E2,2.8024084E2,2.6847906E2,6.2574054E2,4.2869913E2,1.3647736E3,2.2921558E2,1.77175E1,1.0730362E1,1.1498859E2,3.724554E2,3.5499225E2,2.2497556E2,4.2494864E0],"tree_param":{"num_deleted":"0","num_feature":"11","num_nodes":"63","size_leaf_vector":"1"}},{"base_weights":[-4.824006E-5,-9.563143E-2,6.369472E-2,-6.674983E-1,-7.980559E-2,2.6210483E-2,2.467166E-1,-1.698144E-2,-7.977107E-1,-1.9327864E-2,-1.2761864E-1,-2.781537E-2,1.0272604E-1,3.3677948E-1,1.4771415E-1,4.5499775E-1,-5.909577E-1,-1.0217843E0,-4.6950728E-1,-7.9423245E-3,-5.3193694E-1,-4.389022E-1,-1.1408536E-1,-6.391266E-2,9.513885E-2,2.770692E-1,1.5703911E-2,3.9396366E-1,2.9506266E-2,-1.6197693E-1,2.0378046E-1,-3.765401E-2,3.3018366E-2,-1.631149E-2,-6.1637677E-2,1.7059742E-2,-5.473599E-2,-3.847975E-2,-2.180049E-3,3.5486456E-3,-3.938191E-3,-2.790734E-3,-3.9546095E-2,-2.8408026E-2,1.4919144E-2,-9.4728125E-3,-2.3359687E-3,-1.9205421E-2,-2.6554565E-3,1.5673371E-3,1.1368264E-2,2.5551641E-2,8.803394E-3,3.7820071E-3,-5.245874E-3,3.8861685E-2,1.6770497E-2,-9.558654E-3,1.5720565E-2,-5.3839087E-2,-3.114577E-4,2.1983072E-2,5.0894176E-3],"categories":[],"categories_nodes":[],"categories_segments":[],"categories_sizes":[],"default_left":[0,0,0,0,0,0,0,0,0,0,0,0,0,0,0,0,0,0,0,0,0,0,0,0,0,0,0,0,0,0,0,0,0,0,0,0,0,0,0,0,0,0,0,0,0,0,0,0,0,0,0,0,0,0,0,0,0,0,0,0,0,0,0],"id":3,"left_children":[1,3,5,7,9,11,13,15,17,19,21,23,25,27,29,31,33,35,37,39,41,43,45,47,49,51,53,55,57,59,61,-1,-1,-1,-1,-1,-1,-1,-1,-1,-1,-1,-1,-1,-1,-1,-1,-1,-1,-1,-1,-1,-1,-1,-1,-1,-1,-1,-1,-1,-1,-1,-1],"loss_changes":[7.946906E1,4.717382E1,5.367576E1,1.1877964E1,1.4683861E1,2.6855518E1,1.180957E1,6.8886824E0,8.12104E0,1.3090441E1,1.1898262E1,1.6908356E1,4.0786095E1,1.2212433E1,1.1064948E1,3.9643853E0,1.5451632E0,7.198036E0,6.2674685E0,1.2278308E1,5.9653673E0,1.1397827E1,1.3798985E1,1.016557E1,7.2866254E0,2.1062042E1,1.2981257E1,1.2900398E1,6.9909377E0,1.3949188E1,1.2908346E1,0E0,0E0,0E0,0E0,0E0,0E0,0E0,0E0,0E0,0E0,0E0,0E0,0E0,0E0,0E0,0E0,0E0,0E0,0E0,0E0,0E0,0E0,0E0,0E0,0E0,0E0,0E0,0E0,0E0,0E0,0E0,0E0],"parents":[2147483647,0,0,1,1,2,2,3,3,4,4,5,5,6,6,7,7,8,8,9,9,10,10,11,11,12,12,13,13,14,14,15,15,16,16,17,17,18,18,19,19,20,20,21,21,22,22,23,23,24,24,25,25,26,26,27,27,28,28,29,29,30,30],"right_children":[2,4,6,8,10,12,14,16,18,20,22,24,26,28,30,32,34,36,38,40,42,44,46,48,50,52,54,56,58,60,62,-1,-1,-1,-1,-1,-1,-1,-1,-1,-1,-1,-1,-1,-1,-1,-1,-1,-1,-1,-1,-1,-1,-1,-1,-1,-1,-1,-1,-1,-1,-1,-1],"split_conditions":[2E0,-6.4845794E-1,1.1E1,-2.2791997E-2,-1.5052838E-3,1.68918E1,1.2E1,8E0,-7.8307223E-1,9.8448074E-1,-3.9568253E-2,3.3506002E-2,3E0,8.3264E1,3.351E0,2.0054763E-2,4.7666264E1,5.560669E0,5.441136E1,1E0,2.4812808E-3,7.581E1,1.2345738E-2,-4.9999982E-2,4E0,4E0,8.482E1,-3.6005348E-2,3.3697568E-2,-1.7278554E-2,-8.440734E-3,-3.765401E-2,3.3018366E-2,-1.631149E-2,-6.1637677E-2,1.7059742E-2,-5.473599E-2,-3.847975E-2,-2.180049E-3,3.5486456E-3,-3.938191E-3,-2.790734E-3,-3.9546095E-2,-2.8408026E-2,1.4919144E-2,-9.4728125E-3,-2.3359687E-3,-1.9205421E-2,-2.6554565E-3,1.5673371E-3,1.1368264E-2,2.5551641E-2,8.803394E-3,3.7820071E-3,-5.245874E-3,3.8861685E-2,1.6770497E-2,-9.558654E-3,1.5720565E-2,-5.3839087E-2,-3.114577E-4,2.1983072E-2,5.0894176E-3],"split_indices":[9,8,10,6,7,3,10,10,8,1,6,1,9,3,2,5,0,4,0,9,6,2,7,6,9,10,2,1,8,6,6,0,0,0,0,0,0,0,0,0,0,0,0,0,0,0,0,0,0,0,0,0,0,0,0,0,0,0,0,0,0,0,0],"split_type":[0,0,0,0,0,0,0,0,0,0,0,0,0,0,0,0,0,0,0,0,0,0,0,0,0,0,0,0,0,0,0,0,0,0,0,0,0,0,0,0,0,0,0,0,0,0,0,0,0,0,0,0,0,0,0,0,0,0,0,0,0,0,0],"sum_hessian":[1.3041206E4,5.2173057E3,7.8239004E3,1.3938673E2,5.077919E3,6.49485E3,1.3290503E3,2.3435879E1,1.1595085E2,2.242647E3,2.8352722E3,3.8072651E3,2.687585E3,6.946883E2,6.34362E2,1.2974374E1,1.0461505E1,6.765063E1,4.8300224E1,2.1949114E3,4.773559E1,1.16820244E2,2.718452E3,2.9435645E3,8.6370074E2,8.941099E2,1.793475E3,5.854523E2,1.09236015E2,9.695066E1,5.374113E2,1.4976367E0,1.1476737E1,8.474324E0,1.9871812E0,3.249405E0,6.440122E1,2.786205E1,2.0438175E1,1.0381337E3,1.1567776E3,1.7245918E1,3.0489672E1,9.958987E1,1.7230371E1,1.2821432E3,1.4363088E3,9.494759E1,2.8486167E3,5.834532E2,2.802476E2,2.6837515E2,6.2573474E2,1.1983788E3,5.950962E2,7.5961784E1,5.0949048E2,6.1741665E1,4.749435E1,1.32443905E1,8.3706276E1,1.6122633E2,3.7618497E2],"tree_param":{"num_deleted":"0","num_feature":"11","num_nodes":"63","size_leaf_vector":"1"}},{"base_weights":[-5.9794274E-5,-9.091682E-2,6.0523685E-2,-6.376531E-1,-7.583913E-2,2.4905441E-2,2.3446415E-1,-1.955099E-2,-7.616442E-1,-1.8381793E-2,-1.2127099E-1,-4.7226496E-2,7.7605195E-2,8.702228E-2,2.917609E-1,4.3249923E-1,-5.692147E-1,-9.768471E-1,-4.4765824E-1,-1.9023265E-1,1.4140699E-2,-4.1745207E-1,-1.0840356E-1,-9.712184E-2,2.3148317E-2,2.161858E-1,7.988329E-3,1.4454632E-2,4.4815996E-1,3.315927E-1,-4.0085062E-2,4.4180863E-2,-7.1820742E-3,-1.5595424E-2,-5.9824646E-2,1.6410112E-2,-5.235518E-2,-3.4762096E-2,2.6492856E-3,-3.3731174E-2,-7.529492E-3,2.5162697E-3,-7.938123E-3,1.0246458E-2,-2.8313493E-2,-9.002282E-3,-2.2193333E-3,-3.313471E-2,-4.2648627E-3,1.267113E-2,-1.2564125E-3,1.2143926E-2,-3.1987455E-2,-6.2708384E-3,3.1857004E-3,1.1343112E-2,-7.1691903E-3,1.0823824E-2,4.6940573E-2,2.4666462E-2,1.257017E-2,4.527041E-3,-2.6768077E-2],"categories":[],"categories_nodes":[],"categories_segments":[],"categories_sizes":[],"default_left":[0,0,0,0,0,0,0,0,0,0,0,0,0,0,0,0,0,0,0,0,0,0,0,0,0,0,0,0,0,0,0,0,0,0,0,0,0,0,0,0,0,0,0,0,0,0,0,0,0,0,0,0,0,0,0,0,0,0,0,0,0,0,0],"id":4,"left_children":[1,3,5,7,9,11,13,15,17,19,21,23,25,27,29,31,33,35,37,39,41,43,45,47,49,51,53,55,57,59,61,-1,-1,-1,-1,-1,-1,-1,-1,-1,-1,-1,-1,-1,-1,-1,-1,-1,-1,-1,-1,-1,-1,-1,-1,-1,-1,-1,-1,-1,-1,-1,-1],"loss_changes":[7.178509E1,4.2959366E1,4.8468414E1,1.0705418E1,1.3254065E1,2.4694963E1,1.1208153E1,6.308486E0,7.43351E0,1.2541911E1,1.0761951E1,9.633156E0,3.621183E1,9.78328E0,1.2665344E1,3.754186E0,1.4735718E0,6.6029587E0,6.137141E0,6.7554893E0,1.1816757E1,1.1019108E1,1.2462212E1,1.0677817E1,1.2664859E1,2.8831043E1,1.8589863E1,1.0495554E1,6.898121E0,1.0961166E1,6.742623E0,0E0,0E0,0E0,0E0,0E0,0E0,0E0,0E0,0E0,0E0,0E0,0E0,0E0,0E0,0E0,0E0,0E0,0E0,0E0,0E0,0E0,0E0,0E0,0E0,0E0,0E0,0E0,0E0,0E0,0E0,0E0,0E0],"parents":[2147483647,0,0,1,1,2,2,3,3,4,4,5,5,6,6,7,7,8,8,9,9,10,10,11,11,12,12,13,13,14,14,15,15,16,16,17,17,18,18,19,19,20,20,21,21,22,22,23,23,24,24,25,25,26,26,27,27,28,28,29,29,30,30],"right_children":[2,4,6,8,10,12,14,16,18,20,22,24,26,28,30,32,34,36,38,40,42,44,46,48,50,52,54,56,58,60,62,-1,-1,-1,-1,-1,-1,-1,-1,-1,-1,-1,-1,-1,-1,-1,-1,-1,-1,-1,-1,-1,-1,-1,-1,-1,-1,-1,-1,-1,-1,-1,-1],"split_conditions":[2E0,-6.4845794E-1,1.1E1,-2.2791997E-2,-1.5052838E-3,2.6882803E-1,5.7614E0,8E0,-7.8307223E-1,-2.8926763E-1,-3.9568253E-2,3.9335825E-3,3E0,7.0072266E1,5.467885E-1,-1.11345975E-2,4.7666264E1,5.560669E0,5.148015E-1,3.069228E1,7.4428596E-2,-3.358663E-1,1.2345738E-2,-7.171577E-1,8.208836E0,1.6055765E0,4E0,-4.6249028E-4,4E0,3E0,2.2963402E2,4.4180863E-2,-7.1820742E-3,-1.5595424E-2,-5.9824646E-2,1.6410112E-2,-5.235518E-2,-3.4762096E-2,2.6492856E-3,-3.3731174E-2,-7.529492E-3,2.5162697E-3,-7.938123E-3,1.0246458E-2,-2.8313493E-2,-9.002282E-3,-2.2193333E-3,-3.313471E-2,-4.2648627E-3,1.267113E-2,-1.2564125E-3,1.2143926E-2,-3.1987455E-2,-6.2708384E-3,3.1857004E-3,1.1343112E-2,-7.1691903E-3,1.0823824E-2,4.6940573E-2,2.4666462E-2,1.257017E-2,4.527041E-3,-2.6768077E-2],"split_indices":[9,8,10,6,7,5,3,10,8,8,6,1,9,0,1,1,0,4,5,0,1,8,7,8,4,8,10,1,9,9,2,0,0,0,0,0,0,0,0,0,0,0,0,0,0,0,0,0,0,0,0,0,0,0,0,0,0,0,0,0,0,0,0],"split_type":[0,0,0,0,0,0,0,0,0,0,0,0,0,0,0,0,0,0,0,0,0,0,0,0,0,0,0,0,0,0,0,0,0,0,0,0,0,0,0,0,0,0,0,0,0,0,0,0,0,0,0,0,0,0,0,0,0,0,0,0,0,0,0],"sum_hessian":[1.3039319E4,5.216154E3,7.823165E3,1.3888046E2,5.0772734E3,6.4944277E3,1.3287377E3,2.3397972E1,1.154825E2,2.2425461E3,2.834727E3,2.7417734E3,3.7526543E3,3.725563E2,9.5618134E2,1.2955976E1,1.0441997E1,6.7267136E1,4.8215363E1,3.5609088E2,1.8864553E3,1.1671646E2,2.7180105E3,1.6040974E3,1.137676E3,1.2541049E3,2.4985493E3,3.1108615E2,6.147018E1,8.537104E2,1.0247098E2,6.967075E0,5.9889E0,8.466375E0,1.9756217E0,3.2487414E0,6.4018394E1,3.2001137E1,1.6214226E1,2.5726337E1,3.3036453E2,1.5605721E3,3.2588327E2,2.2449942E1,9.426652E1,1.2817625E3,1.4362482E3,3.1723272E1,1.5723741E3,1.9643791E2,9.412381E2,1.2168724E3,3.7232475E1,7.358065E2,1.7627428E3,1.3243173E2,1.786544E2,4.273303E1,1.873715E1,2.812652E2,5.724452E2,8.173192E1,2.0739061E1],"tree_param":{"num_deleted":"0","num_feature":"11","num_nodes":"63","size_leaf_vector":"1"}},{"base_weights":[-6.9744776E-5,-8.643063E-2,5.7507645E-2,-6.092573E-1,-7.207268E-2,2.3653988E-2,2.228753E-1,-2.0186612E-2,-7.2773516E-1,-1.748445E-2,-1.1524347E-1,-2.5882475E-2,9.381692E-2,3.0934274E-1,1.278848E-1,4.1428992E-1,-5.485058E-1,-9.1933876E-1,-3.9060694E-1,-6.7996187E-3,-4.989844E-1,-3.9716542E-1,-1.03006266E-1,-5.9293136E-2,8.791009E-2,2.5262636E-1,1.4584799E-2,3.6313936E-1,2.0524168E-2,-1.5989786E-1,1.8001126E-1,-1.7907394E-2,3.660845E-2,-3.3989638E-2,1.4557044E-2,1.6932318E-2,-4.959667E-2,1.2341945E-2,-3.179491E-2,3.4260151E-3,-3.7200667E-3,4.7983937E-2,-2.86861E-2,1.7308665E-2,-2.5760382E-2,-8.555357E-3,-2.1085376E-3,-1.0654183E-2,-1.8887371E-3,1.3211261E-3,1.0769003E-2,2.378842E-2,7.820221E-3,8.173741E-3,-1.6137718E-3,3.6205057E-2,1.5403799E-2,-9.458668E-3,1.4571317E-2,-5.1534515E-2,-5.847757E-4,2.0189758E-2,4.166031E-3],"categories":[],"categories_nodes":[],"categories_segments":[],"categories_sizes":[],"default_left":[0,0,0,0,0,0,0,0,0,0,0,0,0,0,0,0,0,0,0,0,0,0,0,0,0,0,0,0,0,0,0,0,0,0,0,0,0,0,0,0,0,0,0,0,0,0,0,0,0,0,0,0,0,0,0,0,0,0,0,0,0,0,0],"id":5,"left_children":[1,3,5,7,9,11,13,15,17,19,21,23,25,27,29,31,33,35,37,39,41,43,45,47,49,51,53,55,57,59,61,-1,-1,-1,-1,-1,-1,-1,-1,-1,-1,-1,-1,-1,-1,-1,-1,-1,-1,-1,-1,-1,-1,-1,-1,-1,-1,-1,-1,-1,-1,-1,-1],"loss_changes":[6.483657E1,3.9110153E1,4.3792084E1,9.705666E0,1.19639225E1,2.2576717E1,1.0878754E1,5.816629E0,7.129158E0,1.1538664E1,9.740101E0,1.4482443E1,3.3820465E1,1.0793617E1,9.556517E0,3.682982E0,1.4566495E0,7.0187225E0,6.997474E0,1.1185449E1,5.858573E0,1.0496582E1,1.1255537E1,9.7353525E0,6.771534E0,1.9135433E1,1.25251465E1,1.1423149E1,6.3160443E0,1.2626192E1,1.1611946E1,0E0,0E0,0E0,0E0,0E0,0E0,0E0,0E0,0E0,0E0,0E0,0E0,0E0,0E0,0E0,0E0,0E0,0E0,0E0,0E0,0E0,0E0,0E0,0E0,0E0,0E0,0E0,0E0,0E0,0E0,0E0,0E0],"parents":[2147483647,0,0,1,1,2,2,3,3,4,4,5,5,6,6,7,7,8,8,9,9,10,10,11,11,12,12,13,13,14,14,15,15,16,16,17,17,18,18,19,19,20,20,21,21,22,22,23,23,24,24,25,25,26,26,27,27,28,28,29,29,30,30],"right_children":[2,4,6,8,10,12,14,16,18,20,22,24,26,28,30,32,34,36,38,40,42,44,46,48,50,52,54,56,58,60,62,-1,-1,-1,-1,-1,-1,-1,-1,-1,-1,-1,-1,-1,-1,-1,-1,-1,-1,-1,-1,-1,-1,-1,-1,-1,-1,-1,-1,-1,-1,-1,-1],"split_conditions":[2E0,-6.4845794E-1,1.1E1,-2.2791997E-2,-1.5052838E-3,1.68918E1,1.2E1,8E0,5.4102757E1,9.8448074E-1,-3.9568253E-2,3.3506002E-2,3E0,8.3264E1,3.351E0,1.12042885E1,1.2E1,5.7739325E0,1.4727878E-3,1E0,6.897716E1,-5.128866E-1,1.2345738E-2,-4.3241048E-1,4E0,4E0,2.6050913E1,-3.6005348E-2,3.3697568E-2,-1.7278554E-2,-8.440734E-3,-1.7907394E-2,3.660845E-2,-3.3989638E-2,1.4557044E-2,1.6932318E-2,-4.959667E-2,1.2341945E-2,-3.179491E-2,3.4260151E-3,-3.7200667E-3,4.7983937E-2,-2.86861E-2,1.7308665E-2,-2.5760382E-2,-8.555357E-3,-2.1085376E-3,-1.0654183E-2,-1.8887371E-3,1.3211261E-3,1.0769003E-2,2.378842E-2,7.820221E-3,8.173741E-3,-1.6137718E-3,3.6205057E-2,1.5403799E-2,-9.458668E-3,1.4571317E-2,-5.1534515E-2,-5.847757E-4,2.0189758E-2,4.166031E-3],"split_indices":[9,8,10,6,7,3,10,10,0,1,6,1,9,3,2,4,10,4,6,9,3,1,7,8,9,10,3,1,8,6,6,0,0,0,0,0,0,0,0,0,0,0,0,0,0,0,0,0,0,0,0,0,0,0,0,0,0,0,0,0,0,0,0],"split_type":[0,0,0,0,0,0,0,0,0,0,0,0,0,0,0,0,0,0,0,0,0,0,0,0,0,0,0,0,0,0,0,0,0,0,0,0,0,0,0,0,0,0,0,0,0,0,0,0,0,0,0,0,0,0,0,0,0,0,0,0,0,0,0],"sum_hessian":[1.30372E4,5.214868E3,7.8223325E3,1.3827637E2,5.076592E3,6.494033E3,1.3282994E3,2.3350147E1,1.1492622E2,2.2424646E3,2.8341272E3,3.8069087E3,2.6871243E3,6.941634E2,6.34136E2,1.2931466E1,1.0418681E1,7.2177734E1,4.274849E1,2.1947751E3,4.7689526E1,1.1659287E2,2.7175342E3,2.9432263E3,8.6368243E2,8.936808E2,1.7934435E3,5.849506E2,1.092128E2,9.693028E1,5.372057E2,3.7332025E0,9.198263E0,9.174536E0,1.2441455E0,3.737968E0,6.8439766E1,1.1877016E1,3.0871471E1,1.0381189E3,1.1566562E3,1.7472657E0,4.594226E1,1.5712851E1,1.0088002E2,1.2813475E3,1.4361868E3,3.6017526E2,2.583051E3,5.83451E2,2.802314E2,2.680708E2,6.2561E2,4.2873285E2,1.3647107E3,7.581353E1,5.091371E2,6.1730614E1,4.7482185E1,1.3231479E1,8.369881E1,1.611225E2,3.760832E2],"tree_param":{"num_deleted":"0","num_feature":"11","num_nodes":"63","size_leaf_vector":"1"}},{"base_weights":[-6.6067514E-5,-8.214505E-2,5.465005E-2,-3.7301448E-1,-5.7924733E-2,2.2479694E-2,2.1184675E-1,-4.96556E-1,-5.9031222E-2,-8.24394E-2,5.8310147E-2,-2.4590135E-2,8.915422E-2,2.9413772E-1,1.2147645E-1,-5.5152234E-2,-5.601972E-1,-4.1362837E-1,1.6723903E-1,-3.1206803E-2,-1.3249043E-1,2.0700717E-1,-1.0493356E-1,-5.6852132E-2,8.1876956E-2,2.4013112E-1,1.385933E-2,-9.0190774E-1,3.0584744E-1,-1.5248954E-1,1.7109662E-1,-1.6743748E-2,1.6037574E-2,-4.623927E-2,-2.2546055E-2,6.4843236E-3,-3.0481508E-2,1.9777915E-2,-8.041217E-3,6.1944695E-3,-5.5584973E-3,-1.0969306E-2,-5.091752E-4,-3.0989526E-4,2.1072935E-2,-7.8175374E-4,-3.2449253E-2,-3.3557867E-3,1.3784288E-2,8.945693E-4,1.0725756E-2,2.262815E-2,7.430728E-3,3.4907311E-3,-4.938226E-3,1.0700127E-2,-5.9097152E-2,2.527888E-2,1.13176815E-2,-4.924548E-2,-5.558878E-4,1.9198326E-2,3.9585466E-3],"categories":[],"categories_nodes":[],"categories_segments":[],"categories_sizes":[],"default_left":[0,0,0,0,0,0,0,0,0,0,0,0,0,0,0,0,0,0,0,0,0,0,0,0,0,0,0,0,0,0,0,0,0,0,0,0,0,0,0,0,0,0,0,0,0,0,0,0,0,0,0,0,0,0,0,0,0,0,0,0,0,0,0],"id":6,"left_children":[1,3,5,7,9,11,13,15,17,19,21,23,25,27,29,31,33,35,37,39,41,43,45,47,49,51,53,55,57,59,61,-1,-1,-1,-1,-1,-1,-1,-1,-1,-1,-1,-1,-1,-1,-1,-1,-1,-1,-1,-1,-1,-1,-1,-1,-1,-1,-1,-1,-1,-1,-1,-1],"loss_changes":[5.854796E1,3.6713997E1,3.9552406E1,1.5511547E1,1.3724432E1,2.0383987E1,9.845627E0,8.041992E0,9.236947E0,1.01929E1,2.0392174E1,1.3083396E1,3.055035E1,1.0006096E1,8.658211E0,4.031786E0,9.585312E0,4.8495555E0,5.341633E0,2.4401329E1,2.1372684E1,2.00975E1,1.9456722E1,9.994027E0,7.514719E0,1.7319248E1,1.1315162E1,2.4370131E0,1.0821266E1,1.15099945E1,1.0498938E1,0E0,0E0,0E0,0E0,0E0,0E0,0E0,0E0,0E0,0E0,0E0,0E0,0E0,0E0,0E0,0E0,0E0,0E0,0E0,0E0,0E0,0E0,0E0,0E0,0E0,0E0,0E0,0E0,0E0,0E0,0E0,0E0],"parents":[2147483647,0,0,1,1,2,2,3,3,4,4,5,5,6,6,7,7,8,8,9,9,10,10,11,11,12,12,13,13,14,14,15,15,16,16,17,17,18,18,19,19,20,20,21,21,22,22,23,23,24,24,25,25,26,26,27,27,28,28,29,29,30,30],"right_children":[2,4,6,8,10,12,14,16,18,20,22,24,26,28,30,32,34,36,38,40,42,44,46,48,50,52,54,56,58,60,62,-1,-1,-1,-1,-1,-1,-1,-1,-1,-1,-1,-1,-1,-1,-1,-1,-1,-1,-1,-1,-1,-1,-1,-1,-1,-1,-1,-1,-1,-1,-1,-1],"split_conditions":[2E0,-4.6911144E-1,1.1E1,5.9520424E1,1.1E1,1.68918E1,1.2E1,-3.225819E-2,1.6143612E1,1E0,1.2E1,3.220058E-2,3E0,-5.6818217E-2,3.351E0,1E0,-7.8307223E-1,9.754132E0,8E0,-6.289302E-3,7E0,1E0,2.8426403E-2,4.5454547E-2,4E0,4E0,8.482E1,2.2576618E0,-4.6249028E-4,-1.7278554E-2,-8.440734E-3,-1.6743748E-2,1.6037574E-2,-4.623927E-2,-2.2546055E-2,6.4843236E-3,-3.0481508E-2,1.9777915E-2,-8.041217E-3,6.1944695E-3,-5.5584973E-3,-1.0969306E-2,-5.091752E-4,-3.0989526E-4,2.1072935E-2,-7.8175374E-4,-3.2449253E-2,-3.3557867E-3,1.3784288E-2,8.945693E-4,1.0725756E-2,2.262815E-2,7.430728E-3,3.4907311E-3,-4.938226E-3,1.0700127E-2,-5.9097152E-2,2.527888E-2,1.13176815E-2,-4.924548E-2,-5.558878E-4,1.9198326E-2,3.9585466E-3],"split_indices":[9,8,10,0,10,3,10,6,4,9,10,1,9,7,2,9,8,4,10,7,10,9,6,6,9,10,2,2,1,6,6,0,0,0,0,0,0,0,0,0,0,0,0,0,0,0,0,0,0,0,0,0,0,0,0,0,0,0,0,0,0,0,0],"split_type":[0,0,0,0,0,0,0,0,0,0,0,0,0,0,0,0,0,0,0,0,0,0,0,0,0,0,0,0,0,0,0,0,0,0,0,0,0,0,0,0,0,0,0,0,0,0,0,0,0,0,0,0,0,0,0,0,0,0,0,0,0,0,0],"sum_hessian":[1.3034605E4,5.2134585E3,7.821147E3,3.9964114E2,4.813817E3,6.4934116E3,1.3277357E3,2.8637933E2,1.1326182E2,3.9756238E3,8.3819324E2,3.80667E3,2.6867415E3,6.937521E2,6.3398364E2,3.6322113E1,2.5005722E2,4.37973E1,6.946452E1,1.9654246E3,2.0101993E3,4.3850003E2,3.9969324E2,2.9217715E3,8.8489844E2,8.933198E2,1.7934218E3,5.9891653E0,6.877629E2,9.6900024E1,5.370836E2,2.088788E1,1.5434233E1,5.5943764E1,1.9411346E2,1.1700892E1,3.2096405E1,4.083749E1,2.8627033E1,6.6841675E2,1.2970078E3,1.1747664E3,8.354329E2,2.20376E2,2.1812401E2,3.4422263E2,5.547062E1,2.835067E3,8.670461E1,5.9769916E2,2.871993E2,2.6778394E2,6.255359E2,1.1983978E3,5.950239E2,1.248767E0,4.7403984E0,1.9427705E2,4.9348584E2,1.3201376E1,8.3698654E1,1.6102509E2,3.760585E2],"tree_param":{"num_deleted":"0","num_feature":"11","num_nodes":"63","size_leaf_vector":"1"}},{"base_weights":[-7.065462E-5,-7.808065E-2,5.1928695E-2,-3.5519725E-1,-5.5041336E-2,2.1366335E-2,2.0131986E-1,-4.7306287E-1,-5.6214444E-2,-7.833343E-2,5.537652E-2,-4.1266102E-2,6.713101E-2,6.736433E-2,2.5343347E-1,-5.243702E-2,-5.3383636E-1,-3.9397496E-1,1.5899467E-1,-6.467235E-2,-2.5881538E-1,1.9666705E-1,-9.9786416E-2,-5.241538E-1,-3.4708075E-2,1.8879655E-1,6.0567125E-3,-2.205695E-3,4.140101E-1,3.1383845E-1,6.1485738E-2,-1.5956253E-2,1.5283318E-2,-4.42996E-2,-2.1448094E-2,6.1838566E-3,-2.9055128E-2,3.2935195E-2,3.3191103E-4,-1.0715672E-2,-2.198815E-3,4.472773E-2,-1.4151472E-2,-2.9446982E-4,2.0016627E-2,-7.4279396E-4,-3.088502E-2,-3.189143E-2,2.8276816E-2,-5.59589E-3,1.2787055E-4,1.0710919E-2,-3.1289935E-2,-6.0454262E-3,2.9543831E-3,9.94319E-3,-7.5742314E-3,9.737367E-3,4.4000514E-2,2.0919286E-2,1.0176397E-2,4.3275054E-3,-5.143982E-2],"categories":[],"categories_nodes":[],"categories_segments":[],"categories_sizes":[],"default_left":[0,0,0,0,0,0,0,0,0,0,0,0,0,0,0,0,0,0,0,0,0,0,0,0,0,0,0,0,0,0,0,0,0,0,0,0,0,0,0,0,0,0,0,0,0,0,0,0,0,0,0,0,0,0,0,0,0,0,0,0,0,0,0],"id":7,"left_children":[1,3,5,7,9,11,13,15,17,19,21,23,25,27,29,31,33,35,37,39,41,43,45,47,49,51,53,55,57,59,61,-1,-1,-1,-1,-1,-1,-1,-1,-1,-1,-1,-1,-1,-1,-1,-1,-1,-1,-1,-1,-1,-1,-1,-1,-1,-1,-1,-1,-1,-1,-1,-1],"loss_changes":[5.2872074E1,3.3264305E1,3.570371E1,1.4068188E1,1.23857975E1,1.8616055E1,9.254505E0,7.3019257E0,8.365734E0,9.786364E0,1.8417728E1,8.66588E0,2.7882214E1,9.004464E0,1.1062725E1,3.6605318E0,8.86895E0,4.406034E0,5.361848E0,1.1441793E1,8.057344E0,1.813661E1,1.7613415E1,4.9032784E0,7.7877545E0,2.6104618E1,1.6835709E1,9.392907E0,6.2053394E0,8.296349E0,6.3750997E0,0E0,0E0,0E0,0E0,0E0,0E0,0E0,0E0,0E0,0E0,0E0,0E0,0E0,0E0,0E0,0E0,0E0,0E0,0E0,0E0,0E0,0E0,0E0,0E0,0E0,0E0,0E0,0E0,0E0,0E0,0E0,0E0],"parents":[2147483647,0,0,1,1,2,2,3,3,4,4,5,5,6,6,7,7,8,8,9,9,10,10,11,11,12,12,13,13,14,14,15,15,16,16,17,17,18,18,19,19,20,20,21,21,22,22,23,23,24,24,25,25,26,26,27,27,28,28,29,29,30,30],"right_children":[2,4,6,8,10,12,14,16,18,20,22,24,26,28,30,32,34,36,38,40,42,44,46,48,50,52,54,56,58,60,62,-1,-1,-1,-1,-1,-1,-1,-1,-1,-1,-1,-1,-1,-1,-1,-1,-1,-1,-1,-1,-1,-1,-1,-1,-1,-1,-1,-1,-1,-1,-1,-1],"split_conditions":[2E0,-4.6911144E-1,1.1E1,5.9520424E1,1.1E1,2.6882803E-1,5.7614E0,-3.225819E-2,1.6143612E1,1.1682539E0,1.2E1,-5.291408E-2,3E0,7.0072266E1,7.009E1,1E0,-7.8307223E-1,9.754132E0,-1.0590632E-3,8.453629E0,2.5843472E1,1E0,2.8426403E-2,3.552124E-2,-2.1215722E-1,1.6055765E0,4E0,-4.6249028E-4,4E0,1.2E1,5.0817468E2,-1.5956253E-2,1.5283318E-2,-4.42996E-2,-2.1448094E-2,6.1838566E-3,-2.9055128E-2,3.2935195E-2,3.3191103E-4,-1.0715672E-2,-2.198815E-3,4.472773E-2,-1.4151472E-2,-2.9446982E-4,2.0016627E-2,-7.4279396E-4,-3.088502E-2,-3.189143E-2,2.8276816E-2,-5.59589E-3,1.2787055E-4,1.0710919E-2,-3.1289935E-2,-6.0454262E-3,2.9543831E-3,9.94319E-3,-7.5742314E-3,9.737367E-3,4.4000514E-2,2.0919286E-2,1.0176397E-2,4.3275054E-3,-5.143982E-2],"split_indices":[9,8,10,0,10,5,3,6,4,8,10,6,9,0,2,9,8,4,6,4,0,9,6,7,8,8,10,1,9,10,2,0,0,0,0,0,0,0,0,0,0,0,0,0,0,0,0,0,0,0,0,0,0,0,0,0,0,0,0,0,0,0,0],"split_type":[0,0,0,0,0,0,0,0,0,0,0,0,0,0,0,0,0,0,0,0,0,0,0,0,0,0,0,0,0,0,0,0,0,0,0,0,0,0,0,0,0,0,0,0,0,0,0,0,0,0,0,0,0,0,0,0,0,0,0,0,0,0,0],"sum_hessian":[1.3032015E4,5.2121655E3,7.8198496E3,3.9896783E2,4.8131978E3,6.4927163E3,1.3271332E3,2.8574042E2,1.1322743E2,3.9749849E3,8.3821265E2,2.7412314E3,3.7514849E3,3.7234106E2,9.5479205E2,3.6308018E1,2.494324E2,4.374347E1,6.948396E1,3.6965437E3,2.7844122E2,4.3857822E2,3.9963443E2,3.5671925E1,2.7055593E3,1.2531017E3,2.4983833E3,3.1093222E2,6.140886E1,7.257631E2,2.2902899E2,2.0872568E1,1.5435448E1,5.552802E1,1.9390437E2,1.1704454E1,3.2039017E1,1.5458541E1,5.4025425E1,4.479954E2,3.2485483E3,4.986348E0,2.734549E2,2.2037466E2,2.1820355E2,3.442165E2,5.5417934E1,3.2677708E1,2.994219E0,8.800975E2,1.825462E3,1.2158932E3,3.7208473E1,7.357031E2,1.7626802E3,1.3234267E2,1.7858954E2,4.272416E1,1.8684696E1,3.7118146E2,3.5458163E2,2.2478212E2,4.2468734E0],"tree_param":{"num_deleted":"0","num_feature":"11","num_nodes":"63","size_leaf_vector":"1"}},{"base_weights":[-7.1251925E-5,-7.420783E-2,4.93423E-2,-5.364339E-1,-6.166874E-2,2.02948E-2,1.913921E-1,5.1423702E-3,-6.466705E-1,-1.1716147E-2,-1.0118884E-1,-2.2860374E-2,8.1436574E-2,8.86331E-2,2.5459835E-1,4.1085607E-1,-4.9264506E-1,-8.451294E-1,-3.6245325E-1,-1.7031807E-1,1.8282142E-2,-1.3562663E-1,-9.348804E-4,-5.8799756E-1,-1.7277032E-2,2.1894658E-1,1.2915167E-2,1.0803628E-1,-5.3537446E-1,3.304239E-1,5.821261E-2,-3.5781633E-2,3.018674E-2,-1.2247908E-2,-5.5940088E-2,-2.2382086E-2,-5.4584384E-2,-2.9945616E-2,5.415039E-3,2.8390975E-3,-1.27295945E-2,2.619633E-3,-7.2387974E-3,-7.399936E-3,1.5082496E-2,-2.4762455E-2,1.4386413E-3,-4.4247102E-2,5.5060363E-3,-2.0668302E-3,5.167305E-3,2.1090934E-2,6.584854E-3,7.59687E-3,-1.542068E-3,9.049185E-3,-3.405823E-3,3.9161006E-3,-6.21875E-2,2.5102077E-2,1.3215858E-2,1.2544642E-2,-3.7934848E-3],"categories":[],"categories_nodes":[],"categories_segments":[],"categories_sizes":[],"default_left":[0,0,0,0,0,0,0,0,0,0,0,0,0,0,0,0,0,0,0,0,0,0,0,0,0,0,0,0,0,0,0,0,0,0,0,0,0,0,0,0,0,0,0,0,0,0,0,0,0,0,0,0,0,0,0,0,0,0,0,0,0,0,0],"id":8,"left_children":[1,3,5,7,9,11,13,15,17,19,21,23,25,27,29,31,33,35,37,39,41,43,45,47,49,51,53,55,57,59,61,-1,-1,-1,-1,-1,-1,-1,-1,-1,-1,-1,-1,-1,-1,-1,-1,-1,-1,-1,-1,-1,-1,-1,-1,-1,-1,-1,-1,-1,-1,-1,-1],"loss_changes":[4.773869E1,3.0174442E1,3.226104E1,8.213593E0,1.0018244E1,1.7134508E1,8.599037E0,5.0999646E0,6.139221E0,1.0674443E1,9.782406E0,1.2002998E1,2.5314089E1,6.1972933E0,1.2211536E1,3.4534938E0,1.4853239E0,6.032135E0,5.4897833E0,6.844063E0,1.0503453E1,1.1454308E1,1.0667551E1,7.8123617E0,1.0948286E1,1.576049E1,1.0919981E1,6.3423E0,6.8180676E0,6.587517E0,5.961197E0,0E0,0E0,0E0,0E0,0E0,0E0,0E0,0E0,0E0,0E0,0E0,0E0,0E0,0E0,0E0,0E0,0E0,0E0,0E0,0E0,0E0,0E0,0E0,0E0,0E0,0E0,0E0,0E0,0E0,0E0,0E0,0E0],"parents":[2147483647,0,0,1,1,2,2,3,3,4,4,5,5,6,6,7,7,8,8,9,9,10,10,11,11,12,12,13,13,14,14,15,15,16,16,17,17,18,18,19,19,20,20,21,21,22,22,23,23,24,24,25,25,26,26,27,27,28,28,29,29,30,30],"right_children":[2,4,6,8,10,12,14,16,18,20,22,24,26,28,30,32,34,36,38,40,42,44,46,48,50,52,54,56,58,60,62,-1,-1,-1,-1,-1,-1,-1,-1,-1,-1,-1,-1,-1,-1,-1,-1,-1,-1,-1,-1,-1,-1,-1,-1,-1,-1,-1,-1,-1,-1,-1,-1],"split_conditions":[2E0,-6.4845794E-1,1.1E1,-2.2791997E-2,-1.5052838E-3,1.68918E1,2.603096E-1,8E0,-7.8307223E-1,-2.8926763E-1,1.7023256E-2,-8.2524166E-2,3E0,2.475173E-1,7.009E1,2.0054763E-2,4.7666264E1,-1.8831397E-3,5.148015E-1,1.1542031E1,7.4428596E-2,4.388464E1,-1.6669366E-1,1.4167706E-2,4.9935997E-2,4E0,2.6050913E1,2.3129727E-1,4E0,-4.5477897E-2,-3.7558686E-3,-3.5781633E-2,3.018674E-2,-1.2247908E-2,-5.5940088E-2,-2.2382086E-2,-5.4584384E-2,-2.9945616E-2,5.415039E-3,2.8390975E-3,-1.27295945E-2,2.619633E-3,-7.2387974E-3,-7.399936E-3,1.5082496E-2,-2.4762455E-2,1.4386413E-3,-4.4247102E-2,5.5060363E-3,-2.0668302E-3,5.167305E-3,2.1090934E-2,6.584854E-3,7.59687E-3,-1.542068E-3,9.049185E-3,-3.405823E-3,3.9161006E-3,-6.21875E-2,2.5102077E-2,1.3215858E-2,1.2544642E-2,-3.7934848E-3],"split_indices":[9,8,10,6,7,3,5,10,8,8,6,7,9,5,2,5,0,6,5,4,1,4,1,6,1,10,3,8,9,1,6,0,0,0,0,0,0,0,0,0,0,0,0,0,0,0,0,0,0,0,0,0,0,0,0,0,0,0,0,0,0,0,0],"split_type":[0,0,0,0,0,0,0,0,0,0,0,0,0,0,0,0,0,0,0,0,0,0,0,0,0,0,0,0,0,0,0,0,0,0,0,0,0,0,0,0,0,0,0,0,0,0,0,0,0,0,0,0,0,0,0,0,0,0,0,0,0,0,0],"sum_hessian":[1.3029425E4,5.210884E3,7.8185405E3,1.3652188E2,5.074362E3,6.4921216E3,1.3264191E3,2.3250238E1,1.13271645E2,2.241919E3,2.8324429E3,3.8062292E3,2.685892E3,5.060687E2,8.2035034E2,1.2906025E1,1.0344214E1,6.553638E1,4.7735268E1,3.5585013E2,1.8860688E3,2.1079854E3,7.244575E2,3.621574E1,3.7700137E3,8.925372E2,1.793355E3,4.9160922E2,1.4459464E1,5.9134607E2,2.2900426E2,1.4905204E0,1.1415504E1,8.409072E0,1.9351422E0,2.616698E1,3.9369396E1,3.1593605E1,1.614166E1,9.639969E1,2.5945044E2,1.5603368E3,3.25732E2,2.0506274E3,5.735793E1,4.0182346E1,6.842752E2,2.5220566E1,1.0995175E1,3.1436387E3,6.26375E2,2.6726328E2,6.2527386E2,4.287304E2,1.3646246E3,3.4762518E2,1.4398405E2,8.224048E0,6.2354155E0,1.6260864E2,4.2873743E2,9.361113E1,1.3539313E2],"tree_param":{"num_deleted":"0","num_feature":"11","num_nodes":"63","size_leaf_vector":"1"}},{"base_weights":[-8.478676E-5,-7.055981E-2,4.688401E-2,-3.2661772E-1,-4.9350556E-2,1.9282574E-2,1.819144E-1,-4.3876588E-1,-4.3065555E-2,-9.940031E-2,-2.4462326E-3,-1.853026E-2,8.3602205E-2,2.5868073E-1,9.771991E-2,-4.60395E-2,-4.9571553E-1,-3.6427248E-1,1.6102389E-1,5.3170477E-3,-2.0219406E-1,1.2560129E-1,-6.7212716E-2,-4.5071226E-2,1.0485368E-1,2.4652007E-1,2.5976335E-3,-8.794209E-1,2.6987657E-1,-1.5482011E-1,1.4350632E-1,-1.4908396E-2,1.4602162E-2,-4.098798E-2,-2.002461E-2,-2.4142386E-2,1.9094324E-2,-3.2115627E-2,1.226586E-2,4.889679E-3,-4.0926845E-3,-1.8343668E-2,-5.1303473E-3,-4.0421452E-2,7.162875E-3,-8.262E-3,1.4245486E-3,-9.572296E-3,-1.2447598E-3,-5.3831756E-2,5.7695196E-3,3.3147004E-2,9.926906E-3,9.130205E-3,-1.46506E-3,1.0285019E-2,-5.755907E-2,2.289067E-2,9.761016E-3,-4.7412276E-2,-1.0144915E-3,2.3711564E-2,4.3868977E-3],"categories":[],"categories_nodes":[],"categories_segments":[],"categories_sizes":[],"default_left":[0,0,0,0,0,0,0,0,0,0,0,0,0,0,0,0,0,0,0,0,0,0,0,0,0,0,0,0,0,0,0,0,0,0,0,0,0,0,0,0,0,0,0,0,0,0,0,0,0,0,0,0,0,0,0,0,0,0,0,0,0,0,0],"id":9,"left_children":[1,3,5,7,9,11,13,15,17,19,21,23,25,27,29,31,33,35,37,39,41,43,45,47,49,51,53,55,57,59,61,-1,-1,-1,-1,-1,-1,-1,-1,-1,-1,-1,-1,-1,-1,-1,-1,-1,-1,-1,-1,-1,-1,-1,-1,-1,-1,-1,-1,-1,-1,-1,-1],"loss_changes":[4.3126244E1,2.8280842E1,2.9134872E1,1.2649872E1,1.1298683E1,1.57916765E1,8.5499115E0,6.35968E0,7.533198E0,2.5065037E1,2.062228E1,1.339671E1,3.1723465E1,9.072422E0,7.357359E0,3.2617228E0,7.358921E0,4.1309237E0,4.9257045E0,9.313912E0,1.9232872E1,1.389073E1,1.5497046E1,9.936607E0,9.140519E0,1.5818813E1,9.230306E0,2.2979198E0,9.55521E0,1.042443E1,9.872519E0,0E0,0E0,0E0,0E0,0E0,0E0,0E0,0E0,0E0,0E0,0E0,0E0,0E0,0E0,0E0,0E0,0E0,0E0,0E0,0E0,0E0,0E0,0E0,0E0,0E0,0E0,0E0,0E0,0E0,0E0,0E0,0E0],"parents":[2147483647,0,0,1,1,2,2,3,3,4,4,5,5,6,6,7,7,8,8,9,9,10,10,11,11,12,12,13,13,14,14,15,15,16,16,17,17,18,18,19,19,20,20,21,21,22,22,23,23,24,24,25,25,26,26,27,27,28,28,29,29,30,30],"right_children":[2,4,6,8,10,12,14,16,18,20,22,24,26,28,30,32,34,36,38,40,42,44,46,48,50,52,54,56,58,60,62,-1,-1,-1,-1,-1,-1,-1,-1,-1,-1,-1,-1,-1,-1,-1,-1,-1,-1,-1,-1,-1,-1,-1,-1,-1,-1,-1,-1,-1,-1,-1,-1],"split_conditions":[2E0,-4.6911144E-1,1.1E1,5.9520424E1,7E0,2.0095976E1,1.2E1,-3.225819E-2,1.6143612E1,1E0,-7.185735E-3,4.9935997E-2,3E0,-5.6818217E-2,3.351E0,1E0,-7.8307223E-1,3.7308004E-2,-1.089258E-3,4E0,-6.529851E-3,-8.273379E-2,1E0,-4.3241048E-1,-5.6818217E-2,3.6916428E1,2.6050913E1,2.2576618E0,-4.6249028E-4,-1.7278554E-2,-2.7777717E-2,-1.4908396E-2,1.4602162E-2,-4.098798E-2,-2.002461E-2,-2.4142386E-2,1.9094324E-2,-3.2115627E-2,1.226586E-2,4.889679E-3,-4.0926845E-3,-1.8343668E-2,-5.1303473E-3,-4.0421452E-2,7.162875E-3,-8.262E-3,1.4245486E-3,-9.572296E-3,-1.2447598E-3,-5.3831756E-2,5.7695196E-3,3.3147004E-2,9.926906E-3,9.130205E-3,-1.46506E-3,1.0285019E-2,-5.755907E-2,2.289067E-2,9.761016E-3,-4.7412276E-2,-1.0144915E-3,2.3711564E-2,4.3868977E-3],"split_indices":[9,8,10,0,10,3,10,6,4,9,6,1,9,7,2,9,8,7,1,10,6,6,9,8,7,0,3,2,1,6,7,0,0,0,0,0,0,0,0,0,0,0,0,0,0,0,0,0,0,0,0,0,0,0,0,0,0,0,0,0,0,0,0],"split_type":[0,0,0,0,0,0,0,0,0,0,0,0,0,0,0,0,0,0,0,0,0,0,0,0,0,0,0,0,0,0,0,0,0,0,0,0,0,0,0,0,0,0,0,0,0,0,0,0,0,0,0,0,0,0,0,0,0,0,0,0,0,0,0],"sum_hessian":[1.3026578E4,5.209462E3,7.817116E3,3.973907E2,4.8120713E3,6.4913647E3,1.3257511E3,2.843712E2,1.1301949E2,2.3274363E3,2.484635E3,4.0884941E3,2.4028708E3,6.9238257E2,6.333686E2,3.6243492E1,2.481277E2,4.3605675E1,6.941382E1,1.1534004E3,1.174036E3,8.3427673E2,1.6503583E3,3.3652368E3,7.232572E2,7.972944E2,1.6055764E3,5.989385E0,6.863932E2,9.684236E1,5.365262E2,2.08285E1,1.5414989E1,5.4626266E1,1.9350143E2,3.793082E1,5.674857E0,5.9631863E0,6.3450634E1,5.5960846E2,5.937919E2,4.414166E2,7.3261945E2,1.4647045E1,8.196297E2,8.1492303E2,8.354352E2,4.06638E2,2.9585989E3,5.4987545E0,7.177584E2,8.105218E1,7.1624225E2,2.4098177E2,1.3645946E3,1.2482576E0,4.7411275E0,1.9368515E2,4.92708E2,1.3162821E1,8.367954E1,7.633438E1,4.6019183E2],"tree_param":{"num_deleted":"0","num_feature":"11","num_nodes":"63","size_leaf_vector":"1"}},{"base_weights":[-9.625656E-5,-6.70823E-2,4.4543967E-2,-3.1119448E-1,-4.6902776E-2,1.831985E-2,1.728947E-1,-4.1825342E-1,-4.11578E-2,-6.869475E-2,5.638304E-2,-1.3858666E-2,8.70899E-2,2.4592552E-1,9.283307E-2,-4.377466E-2,-4.7269398E-1,-3.4668925E-1,1.5264305E-1,3.5811684E-1,-7.4134685E-2,1.9060272E-1,-9.1076754E-2,1.1842613E-1,-3.7256535E-2,1.393439E-1,-1.2614548E-1,2.9463282E-1,-1.4473892E-2,4.6191208E-2,3.4501603E-1,4.397405E-3,-3.413334E-2,-1.1357019E-2,-2.9561007E-2,7.3687225E-3,-2.6339341E-2,1.8497227E-2,-7.98305E-3,-1.0373892E-2,3.2353677E-2,5.453482E-3,-4.37969E-3,9.9280944E-5,1.9007616E-2,-2.2371233E-4,-2.7499232E-2,1.1704381E-2,-6.5902504E-3,-1.0740987E-2,-8.90155E-4,9.060721E-3,-9.392022E-4,-1.193459E-3,-2.4760779E-2,3.0699328E-2,1.2313499E-2,-1.0604653E-2,1.208884E-2,9.041217E-3,-6.545653E-3,3.8581751E-3,4.9473327E-2],"categories":[],"categories_nodes":[],"categories_segments":[],"categories_sizes":[],"default_left":[0,0,0,0,0,0,0,0,0,0,0,0,0,0,0,0,0,0,0,0,0,0,0,0,0,0,0,0,0,0,0,0,0,0,0,0,0,0,0,0,0,0,0,0,0,0,0,0,0,0,0,0,0,0,0,0,0,0,0,0,0,0,0],"id":10,"left_children":[1,3,5,7,9,11,13,15,17,19,21,23,25,27,29,31,33,35,37,39,41,43,45,47,49,51,53,55,57,59,61,-1,-1,-1,-1,-1,-1,-1,-1,-1,-1,-1,-1,-1,-1,-1,-1,-1,-1,-1,-1,-1,-1,-1,-1,-1,-1,-1,-1,-1,-1,-1,-1],"loss_changes":[3.895025E1,2.5645594E1,2.6306583E1,1.1475925E1,1.083588E1,1.43665905E1,7.730198E0,5.780903E0,6.8016663E0,9.254631E0,1.6623253E1,1.3694999E1,2.3075773E1,8.791775E0,7.4431605E0,3.1925006E0,7.0939293E0,4.040956E0,4.838983E0,8.337074E0,9.688429E0,1.5714241E1,1.5913166E1,1.9277641E1,1.2981196E1,1.10111885E1,1.5382553E1,8.864124E0,5.6281004E0,1.2811909E1,1.6982922E1,0E0,0E0,0E0,0E0,0E0,0E0,0E0,0E0,0E0,0E0,0E0,0E0,0E0,0E0,0E0,0E0,0E0,0E0,0E0,0E0,0E0,0E0,0E0,0E0,0E0,0E0,0E0,0E0,0E0,0E0,0E0,0E0],"parents":[2147483647,0,0,1,1,2,2,3,3,4,4,5,5,6,6,7,7,8,8,9,9,10,10,11,11,12,12,13,13,14,14,15,15,16,16,17,17,18,18,19,19,20,20,21,21,22,22,23,23,24,24,25,25,26,26,27,27,28,28,29,29,30,30],"right_children":[2,4,6,8,10,12,14,16,18,20,22,24,26,28,30,32,34,36,38,40,42,44,46,48,50,52,54,56,58,60,62,-1,-1,-1,-1,-1,-1,-1,-1,-1,-1,-1,-1,-1,-1,-1,-1,-1,-1,-1,-1,-1,-1,-1,-1,-1,-1,-1,-1,-1,-1,-1,-1],"split_conditions":[2E0,-4.6911144E-1,1.1E1,5.9520424E1,1.1E1,3.3506002E-2,1.2E1,-3.225819E-2,1.6143612E1,-2.202439E0,1.2E1,3.6667755E1,9E0,8.3264E1,7.063856E1,-4.973326E-1,1.1082557E1,9.754132E0,8E0,-2.2614436E-2,-3.6205146E-1,1E0,2.624434E-2,4E0,-4.4684798E-1,2.624434E-2,8.2215E1,-3.6005348E-2,3.3697568E-2,2.2676536E-3,4E0,4.397405E-3,-3.413334E-2,-1.1357019E-2,-2.9561007E-2,7.3687225E-3,-2.6339341E-2,1.8497227E-2,-7.98305E-3,-1.0373892E-2,3.2353677E-2,5.453482E-3,-4.37969E-3,9.9280944E-5,1.9007616E-2,-2.2371233E-4,-2.7499232E-2,1.1704381E-2,-6.5902504E-3,-1.0740987E-2,-8.90155E-4,9.060721E-3,-9.392022E-4,-1.193459E-3,-2.4760779E-2,3.0699328E-2,1.2313499E-2,-1.0604653E-2,1.208884E-2,9.041217E-3,-6.545653E-3,3.8581751E-3,4.9473327E-2],"split_indices":[9,8,10,0,10,1,10,6,4,1,10,0,10,3,0,8,4,4,10,7,8,9,6,9,8,6,2,1,8,6,9,0,0,0,0,0,0,0,0,0,0,0,0,0,0,0,0,0,0,0,0,0,0,0,0,0,0,0,0,0,0,0,0],"split_type":[0,0,0,0,0,0,0,0,0,0,0,0,0,0,0,0,0,0,0,0,0,0,0,0,0,0,0,0,0,0,0,0,0,0,0,0,0,0,0,0,0,0,0,0,0,0,0,0,0,0,0,0,0,0,0,0,0,0,0,0,0,0,0],"sum_hessian":[1.3023655E4,5.208061E3,7.8155938E3,3.9655115E2,4.81151E3,6.490602E3,1.3249916E3,2.8357565E2,1.129755E2,3.9734897E3,8.3802014E2,4.422192E3,2.0684102E3,6.9183765E2,6.3315393E2,3.62218E1,2.4735385E2,4.3541866E1,6.943364E1,4.9190933E1,3.9242988E3,4.3855215E2,3.9946802E2,6.6401E2,3.7581821E3,1.661581E3,4.068291E2,5.8271094E2,1.09126686E2,5.35327E2,9.78269E1,3.0745277E1,5.476524E0,8.147548E1,1.6587837E2,1.1680449E1,3.1861418E1,4.0835613E1,2.8598024E1,1.6728693E1,3.2462242E1,2.6808224E2,3.6562166E3,2.2032324E2,2.182289E2,3.3689993E2,6.2568104E1,4.5415546E2,2.0985457E2,3.7009158E2,3.3880903E3,1.3136066E3,3.4797446E2,3.193859E2,8.74432E1,7.510115E1,5.076098E2,6.17092E1,4.741749E1,3.041181E2,2.3120894E2,6.989586E1,2.7931036E1],"tree_param":{"num_deleted":"0","num_feature":"11","num_nodes":"63","size_leaf_vector":"1"}},{"base_weights":[-9.101157E-5,-6.375974E-2,4.233374E-2,-4.8011255E-1,-5.2610558E-2,1.7400892E-2,1.6443314E-1,1.6405977E-2,-5.8236676E-1,-1.7182744E-1,-3.61821E-2,-1.8227486E-2,7.801439E-2,4.292395E-2,2.1179904E-1,4.014486E-1,-4.5849407E-1,3.8330194E-1,-6.373169E-1,-2.471505E-1,-1.4803658E-2,1.4644526E-2,-7.631727E-2,-6.66632E-2,4.2390022E-2,2.3227423E-1,1.3689033E-3,-6.482289E-2,2.5392324E-1,2.4710116E-1,-8.095291E-2,4.1269314E-2,-6.9085113E-3,-5.557099E-2,-1.1284508E-2,4.0661898E-2,-3.381657E-2,-4.1168388E-2,-1.657555E-2,-1.8940091E-2,-4.358874E-3,7.5921416E-3,-9.753379E-3,1.320028E-3,-2.3679195E-2,-1.7548628E-2,-3.156174E-3,-7.7489167E-3,-6.0811796E-4,-6.4957904E-4,7.851289E-3,2.5278736E-2,8.357488E-3,8.574418E-3,-1.4387275E-3,2.261399E-3,-2.0710617E-2,-2.9046645E-2,1.682255E-2,2.0056082E-2,8.548229E-3,1.9946687E-3,-2.6829338E-2],"categories":[],"categories_nodes":[],"categories_segments":[],"categories_sizes":[],"default_left":[0,0,0,0,0,0,0,0,0,0,0,0,0,0,0,0,0,0,0,0,0,0,0,0,0,0,0,0,0,0,0,0,0,0,0,0,0,0,0,0,0,0,0,0,0,0,0,0,0,0,0,0,0,0,0,0,0,0,0,0,0,0,0],"id":11,"left_children":[1,3,5,7,9,11,13,15,17,19,21,23,25,27,29,31,33,35,37,39,41,43,45,47,49,51,53,55,57,59,61,-1,-1,-1,-1,-1,-1,-1,-1,-1,-1,-1,-1,-1,-1,-1,-1,-1,-1,-1,-1,-1,-1,-1,-1,-1,-1,-1,-1,-1,-1,-1,-1],"loss_changes":[3.5177227E1,2.4148886E1,2.3789583E1,6.8988457E0,9.929535E0,1.4019707E1,7.6178246E0,4.599196E0,6.2164803E0,7.260126E0,9.098969E0,1.2008447E1,2.8413862E1,8.495037E0,9.87151E0,3.286399E0,1.463459E0,3.5950866E0,5.807106E0,8.706816E0,6.0424633E0,1.1311959E1,9.008939E0,1.094002E1,1.1536036E1,1.4113575E1,8.243157E0,9.541783E0,8.8952465E0,9.909664E0,5.7110357E0,0E0,0E0,0E0,0E0,0E0,0E0,0E0,0E0,0E0,0E0,0E0,0E0,0E0,0E0,0E0,0E0,0E0,0E0,0E0,0E0,0E0,0E0,0E0,0E0,0E0,0E0,0E0,0E0,0E0,0E0,0E0,0E0],"parents":[2147483647,0,0,1,1,2,2,3,3,4,4,5,5,6,6,7,7,8,8,9,9,10,10,11,11,12,12,13,13,14,14,15,15,16,16,17,17,18,18,19,19,20,20,21,21,22,22,23,23,24,24,25,25,26,26,27,27,28,28,29,29,30,30],"right_children":[2,4,6,8,10,12,14,16,18,20,22,24,26,28,30,32,34,36,38,40,42,44,46,48,50,52,54,56,58,60,62,-1,-1,-1,-1,-1,-1,-1,-1,-1,-1,-1,-1,-1,-1,-1,-1,-1,-1,-1,-1,-1,-1,-1,-1,-1,-1,-1,-1,-1,-1,-1,-1],"split_conditions":[2E0,-6.4845794E-1,1.1E1,-2.2791997E-2,8.36865E0,2.0095976E1,5.7614E0,8E0,5.7739325E0,2.518487E-1,-1.5052838E-3,3.9335825E-3,3E0,4E0,5.467885E-1,-1.11345975E-2,9E0,1.11111635E-2,5.3836903E1,5.144214E1,7.3976235E0,9.8448074E-1,-3.9568253E-2,-1.522741E-1,4E0,-2.0909049E-2,2.6050913E1,3.9461353E-1,3.9025604E1,3E0,2.2963402E2,4.1269314E-2,-6.9085113E-3,-5.557099E-2,-1.1284508E-2,4.0661898E-2,-3.381657E-2,-4.1168388E-2,-1.657555E-2,-1.8940091E-2,-4.358874E-3,7.5921416E-3,-9.753379E-3,1.320028E-3,-2.3679195E-2,-1.7548628E-2,-3.156174E-3,-7.7489167E-3,-6.0811796E-4,-6.4957904E-4,7.851289E-3,2.5278736E-2,8.357488E-3,8.574418E-3,-1.4387275E-3,2.261399E-3,-2.0710617E-2,-2.9046645E-2,1.682255E-2,2.0056082E-2,8.548229E-3,1.9946687E-3,-2.6829338E-2],"split_indices":[9,8,10,6,4,3,3,10,4,5,7,1,9,9,1,1,10,6,0,0,4,1,6,8,9,7,3,8,0,9,2,0,0,0,0,0,0,0,0,0,0,0,0,0,0,0,0,0,0,0,0,0,0,0,0,0,0,0,0,0,0,0,0],"split_type":[0,0,0,0,0,0,0,0,0,0,0,0,0,0,0,0,0,0,0,0,0,0,0,0,0,0,0,0,0,0,0,0,0,0,0,0,0,0,0,0,0,0,0,0,0,0,0,0,0,0,0,0,0,0,0,0,0,0,0,0,0,0,0],"sum_hessian":[1.3021154E4,5.2067095E3,7.814445E3,1.346931E2,5.072016E3,6.4902666E3,1.324178E3,2.3145315E1,1.1154778E2,6.1314307E2,4.458873E3,4.0880352E3,2.4022317E3,3.7193875E2,9.5223926E2,1.2867326E1,1.0277989E1,5.684017E0,1.0586376E2,4.1398416E2,1.9915892E2,1.9676735E3,2.4911997E3,2.272289E3,1.815746E3,7.9671E2,1.6055217E3,2.4666962E2,1.2526913E2,8.4990735E2,1.02331955E2,6.9094906E0,5.957835E0,1.7094834E0,8.568506E0,4.2088466E0,1.4751703E0,6.476723E1,4.109654E1,2.2634416E2,1.8764E2,1.0357022E2,9.55887E1,1.9223317E3,4.534182E1,1.13012634E2,2.378187E3,8.6643805E2,1.4058512E3,1.2248811E3,5.9086487E2,1.5201265E2,6.446974E2,2.4095636E2,1.3645653E3,1.8824626E2,5.8423355E1,1.0725908E1,1.1454322E2,2.7973965E2,5.7016766E2,8.16015E1,2.0730455E1],"tree_param":{"num_deleted":"0","num_feature":"11","num_nodes":"63","size_leaf_vector":"1"}},{"base_weights":[-9.791523E-5,-6.0621817E-2,4.022862E-2,-4.5954353E-1,-5.000117E-2,1.6539462E-2,1.5630317E-1,1.4283525E-2,-5.575042E-1,-1.6333799E-1,-3.438685E-2,-1.7317582E-2,7.414952E-2,1.6080922E-1,-1.0081677E0,3.848137E-1,-4.4261652E-1,3.6470577E-1,-6.104029E-1,-1.7833214E-1,5.88837E-1,1.3900654E-2,-7.2523676E-2,-5.4495156E-1,-1.2146434E-2,2.2084613E-1,1.3049935E-3,6.2977344E-2,2.2140115E-1,1.5365133E-4,-7.071343E-2,-3.420135E-2,2.8418899E-2,-1.020801E-2,-5.3098597E-2,3.8918834E-2,-3.2887097E-2,-4.06807E-2,-1.6314048E-2,5.149488E-4,-1.1580384E-2,3.8954094E-2,-3.0208716E-2,1.2540269E-3,-2.2553649E-2,-6.9748187E-3,-9.887697E-4,-3.802594E-2,2.018956E-2,-1.7930176E-3,4.861927E-3,2.1415422E-2,6.829378E-3,2.7538703E-3,-4.4989875E-3,4.0887813E-3,-2.6989533E-2,1.3147143E-2,-3.4403135E-3],"categories":[],"categories_nodes":[],"categories_segments":[],"categories_sizes":[],"default_left":[0,0,0,0,0,0,0,0,0,0,0,0,0,0,0,0,0,0,0,0,0,0,0,0,0,0,0,0,0,0,0,0,0,0,0,0,0,0,0,0,0,0,0,0,0,0,0,0,0,0,0,0,0,0,0,0,0,0,0],"id":12,"left_children":[1,3,5,7,9,11,13,15,17,19,21,23,25,27,29,31,33,35,37,39,41,43,45,47,49,51,53,55,57,-1,-1,-1,-1,-1,-1,-1,-1,-1,-1,-1,-1,-1,-1,-1,-1,-1,-1,-1,-1,-1,-1,-1,-1,-1,-1,-1,-1,-1,-1],"loss_changes":[3.177807E1,2.2034777E1,2.1482918E1,6.269106E0,8.970776E0,1.2660993E1,7.1107597E0,4.2477946E0,5.676918E0,7.029024E0,8.213144E0,1.1149563E1,2.5674784E1,7.8109283E0,2.1571393E0,3.1031168E0,1.444768E0,3.3421178E0,5.861229E0,6.0591335E0,3.2468214E0,1.0245095E1,8.799819E0,8.418499E0,1.050933E1,1.3877098E1,7.8904443E0,5.7806177E0,9.840607E0,0E0,0E0,0E0,0E0,0E0,0E0,0E0,0E0,0E0,0E0,0E0,0E0,0E0,0E0,0E0,0E0,0E0,0E0,0E0,0E0,0E0,0E0,0E0,0E0,0E0,0E0,0E0,0E0,0E0,0E0],"parents":[2147483647,0,0,1,1,2,2,3,3,4,4,5,5,6,6,7,7,8,8,9,9,10,10,11,11,12,12,13,13,14,14,15,15,16,16,17,17,18,18,19,19,20,20,21,21,22,22,23,23,24,24,25,25,26,26,27,27,28,28],"right_children":[2,4,6,8,10,12,14,16,18,20,22,24,26,28,30,32,34,36,38,40,42,44,46,48,50,52,54,56,58,-1,-1,-1,-1,-1,-1,-1,-1,-1,-1,-1,-1,-1,-1,-1,-1,-1,-1,-1,-1,-1,-1,-1,-1,-1,-1,-1,-1,-1,-1],"split_conditions":[2E0,-6.4845794E-1,1.1E1,-2.2791997E-2,8.36865E0,2.0095976E1,5.0817468E2,8E0,5.7739325E0,5.783397E0,-1.5052838E-3,-8.2524166E-2,3E0,2.603096E-1,-1.2502828E0,2.0054763E-2,4.7666264E1,1.11111635E-2,-7.8307223E-1,4E0,1.8726552E-2,9.8448074E-1,1.2345738E-2,3.2258146E-2,4.9935997E-2,4E0,8.482E1,2.475173E-1,5.467885E-1,1.5365133E-4,-7.071343E-2,-3.420135E-2,2.8418899E-2,-1.020801E-2,-5.3098597E-2,3.8918834E-2,-3.2887097E-2,-4.06807E-2,-1.6314048E-2,5.149488E-4,-1.1580384E-2,3.8954094E-2,-3.0208716E-2,1.2540269E-3,-2.2553649E-2,-6.9748187E-3,-9.887697E-4,-3.802594E-2,2.018956E-2,-1.7930176E-3,4.861927E-3,2.1415422E-2,6.829378E-3,2.7538703E-3,-4.4989875E-3,4.0887813E-3,-2.6989533E-2,1.3147143E-2,-3.4403135E-3],"split_indices":[9,8,10,6,4,3,2,10,4,5,7,7,9,5,1,5,0,6,8,10,6,1,7,6,1,10,2,5,1,0,0,0,0,0,0,0,0,0,0,0,0,0,0,0,0,0,0,0,0,0,0,0,0,0,0,0,0,0,0],"split_type":[0,0,0,0,0,0,0,0,0,0,0,0,0,0,0,0,0,0,0,0,0,0,0,0,0,0,0,0,0,0,0,0,0,0,0,0,0,0,0,0,0,0,0,0,0,0,0,0,0,0,0,0,0,0,0,0,0,0,0],"sum_hessian":[1.3017962E4,5.205223E3,7.8127393E3,1.3389069E2,5.0713325E3,6.489473E3,1.3232662E3,2.308496E1,1.10805725E2,6.129275E2,4.458405E3,4.0877998E3,2.401673E3,1.319024E3,4.242203E0,1.2834443E1,1.0250518E1,5.6913385E0,1.0511439E2,6.016959E2,1.1231531E1,1.9676594E3,2.4907456E3,3.8661114E1,4.0491387E3,7.962095E2,1.6054637E3,5.0526367E2,8.137604E2,1.4998434E0,2.74236E0,1.4815354E0,1.1352907E1,8.361076E0,1.8894416E0,4.221913E0,1.4694259E0,6.0196644E1,4.491774E1,1.3269023E2,4.690057E2,9.986056E0,1.2454754E0,1.9223834E3,4.5275967E1,1.0966815E3,1.394064E3,3.1664825E1,6.996288E0,3.3282654E3,7.2087317E2,2.2879207E2,5.674174E2,1.0105709E3,5.9489276E2,4.9082095E2,1.4442706E1,7.1194336E2,1.0181706E2],"tree_param":{"num_deleted":"0","num_feature":"11","num_nodes":"59","size_leaf_vector":"1"}},{"base_weights":[-1.1098468E-4,-5.7640806E-2,3.8217418E-2,-2.786354E-1,-3.9481025E-2,1.571725E-2,1.4851259E-1,-1.4016968E-1,-4.6386868E-1,-8.643828E-2,4.5128753E-3,-1.6456598E-2,7.047579E-2,2.1862148E-1,7.17751E-2,-2.5205237E-1,1.2549125E-1,-8.1174153E-1,-3.360981E-1,1.3032551E-2,-1.8414126E-1,1.2573878E-1,-5.6823842E-2,-6.1168052E-2,3.9493863E-2,2.1001475E-1,1.2386559E-3,-8.683022E-1,2.2938226E-1,-3.4648575E-2,1.7380989E-1,-3.3735048E-2,-6.4614685E-3,3.876199E-2,-2.0211742E-3,-7.0924684E-2,-2.095451E-2,-1.898974E-2,4.3052956E-2,4.4506174E-2,2.0236494E-4,-1.7036999E-2,-4.4761365E-3,-3.832585E-2,7.126771E-3,-7.422318E-3,1.6296884E-3,-3.6265086E-3,1.7878463E-2,1.2753251E-2,5.795177E-4,2.987412E-2,8.275111E-3,-2.499523E-3,4.8032417E-3,9.383012E-3,-5.6522198E-2,2.0129899E-2,8.040293E-3,6.1499453E-3,-1.5112693E-2,2.3907624E-4,2.5640456E-2],"categories":[],"categories_nodes":[],"categories_segments":[],"categories_sizes":[],"default_left":[0,0,0,0,0,0,0,0,0,0,0,0,0,0,0,0,0,0,0,0,0,0,0,0,0,0,0,0,0,0,0,0,0,0,0,0,0,0,0,0,0,0,0,0,0,0,0,0,0,0,0,0,0,0,0,0,0,0,0,0,0,0,0],"id":13,"left_children":[1,3,5,7,9,11,13,15,17,19,21,23,25,27,29,31,33,35,37,39,41,43,45,47,49,51,53,55,57,59,61,-1,-1,-1,-1,-1,-1,-1,-1,-1,-1,-1,-1,-1,-1,-1,-1,-1,-1,-1,-1,-1,-1,-1,-1,-1,-1,-1,-1,-1,-1,-1,-1],"loss_changes":[2.870215E1,2.0876387E1,1.9384491E1,1.0067186E1,9.938313E0,1.143436E1,7.104786E0,6.79332E0,7.2188797E0,2.2617447E1,1.848183E1,1.023044E1,2.3205889E1,8.282845E0,6.8837795E0,8.239745E0,7.3709025E0,1.002409E1,6.864937E0,9.090903E0,1.7364697E1,1.2624622E1,1.3527157E1,1.0839868E1,1.0924465E1,1.3639679E1,7.808501E0,2.145483E0,8.073883E0,1.3151238E1,1.853545E1,0E0,0E0,0E0,0E0,0E0,0E0,0E0,0E0,0E0,0E0,0E0,0E0,0E0,0E0,0E0,0E0,0E0,0E0,0E0,0E0,0E0,0E0,0E0,0E0,0E0,0E0,0E0,0E0,0E0,0E0,0E0,0E0],"parents":[2147483647,0,0,1,1,2,2,3,3,4,4,5,5,6,6,7,7,8,8,9,9,10,10,11,11,12,12,13,13,14,14,15,15,16,16,17,17,18,18,19,19,20,20,21,21,22,22,23,23,24,24,25,25,26,26,27,27,28,28,29,29,30,30],"right_children":[2,4,6,8,10,12,14,16,18,20,22,24,26,28,30,32,34,36,38,40,42,44,46,48,50,52,54,56,58,60,62,-1,-1,-1,-1,-1,-1,-1,-1,-1,-1,-1,-1,-1,-1,-1,-1,-1,-1,-1,-1,-1,-1,-1,-1,-1,-1,-1,-1,-1,-1,-1,-1],"split_conditions":[2E0,-4.6911144E-1,1.1E1,8E0,7E0,2.0095976E1,1.2E1,5.9520424E1,9E0,1E0,-7.185735E-3,3.9335825E-3,3E0,-5.6818217E-2,5.6852795E1,3E0,-3.960419E-3,-7.171577E-1,7.804869E1,-6.276766E-2,-6.529851E-3,-8.273379E-2,1E0,4.5454547E-2,8.208836E0,3.6916428E1,5.839703E1,2.2576618E0,-4.6249028E-4,2.6762874E-3,4E0,-3.3735048E-2,-6.4614685E-3,3.876199E-2,-2.0211742E-3,-7.0924684E-2,-2.095451E-2,-1.898974E-2,4.3052956E-2,4.4506174E-2,2.0236494E-4,-1.7036999E-2,-4.4761365E-3,-3.832585E-2,7.126771E-3,-7.422318E-3,1.6296884E-3,-3.6265086E-3,1.7878463E-2,1.2753251E-2,5.795177E-4,2.987412E-2,8.275111E-3,-2.499523E-3,4.8032417E-3,9.383012E-3,-5.6522198E-2,2.0129899E-2,8.040293E-3,6.1499453E-3,-1.5112693E-2,2.3907624E-4,2.5640456E-2],"split_indices":[9,8,10,10,10,3,10,0,10,9,6,1,9,7,0,10,6,8,0,6,6,6,9,6,4,0,0,2,1,6,9,0,0,0,0,0,0,0,0,0,0,0,0,0,0,0,0,0,0,0,0,0,0,0,0,0,0,0,0,0,0,0,0],"split_type":[0,0,0,0,0,0,0,0,0,0,0,0,0,0,0,0,0,0,0,0,0,0,0,0,0,0,0,0,0,0,0,0,0,0,0,0,0,0,0,0,0,0,0,0,0,0,0,0,0,0,0,0,0,0,0,0,0,0,0,0,0,0,0],"sum_hessian":[1.3014694E4,5.203655E3,7.811039E3,3.940415E2,4.8096133E3,6.4885254E3,1.3225138E3,2.2649124E2,1.6755025E2,2.325987E3,2.4836265E3,4.0875498E3,2.4009753E3,6.901397E2,6.3237415E2,1.5940804E2,6.708321E1,4.357049E1,1.2397975E2,1.1529956E3,1.1729915E3,8.3408685E2,1.6495396E3,2.2719126E3,1.8156372E3,7.9556946E2,1.605406E3,5.9843225E0,6.8415533E2,3.0985333E2,3.2252084E2,3.4881916E1,1.24526115E2,1.2898422E1,5.4184795E1,1.6091768E1,2.7478724E1,1.20272514E2,3.7072353E0,1.0697521E1,1.1422981E3,4.4081616E2,7.3217523E2,1.4586771E1,8.195001E2,8.1439874E2,8.3514075E2,2.2126995E3,5.921313E1,2.071488E2,1.6084884E3,8.069777E1,7.1487164E2,1.0426144E3,5.6279156E2,1.246656E0,4.7376666E0,1.9265677E2,4.914986E2,1.9532617E2,1.14527145E2,2.1589003E2,1.066308E2],"tree_param":{"num_deleted":"0","num_feature":"11","num_nodes":"63","size_leaf_vector":"1"}},{"base_weights":[-1.0794347E-4,-2.033172E-2,9.8702334E-2,-7.337563E-2,1.494419E-2,1.9453639E-1,-4.784263E-3,-4.4516072E-1,-6.237669E-2,-3.2597937E-2,4.9703892E-2,2.2498097E-1,-2.2692052E-1,5.643707E-2,-1.9041233E-1,6.619181E-2,-5.402518E-1,-8.507982E-2,2.8922154E-2,-4.841712E-1,-2.6480954E-2,1.416454E-1,3.6613026E-3,4.2087346E-1,1.6722775E-1,-4.685652E-2,-7.211101E-1,-2.3716646E-1,1.0237415E-1,-6.23854E-1,-5.9798423E-2,2.0833759E-2,-2.1017484E-2,-3.6495797E-2,-1.051025E-2,-1.1122823E-3,-7.5991E-3,4.9257013E-3,-7.913961E-3,-2.9642304E-2,2.7510092E-2,8.782535E-3,-2.001005E-3,8.285649E-3,-3.1370346E-2,-5.889192E-3,2.719234E-3,2.5367318E-3,2.6553873E-2,9.315669E-3,-3.131103E-2,-3.4133613E-2,6.2107844E-3,-6.660216E-2,-1.465748E-3,-1.0085925E-3,-3.7394416E-2,-2.7181229E-2,5.911141E-3,-6.103767E-2,-2.2135396E-2,4.159394E-3,-1.8601058E-2],"categories":[],"categories_nodes":[],"categories_segments":[],"categories_sizes":[],"default_left":[0,0,0,0,0,0,0,0,0,0,0,0,0,0,0,0,0,0,0,0,0,0,0,0,0,0,0,0,0,0,0,0,0,0,0,0,0,0,0,0,0,0,0,0,0,0,0,0,0,0,0,0,0,0,0,0,0,0,0,0,0,0,0],"id":14,"left_children":[1,3,5,7,9,11,13,15,17,19,21,23,25,27,29,31,33,35,37,39,41,43,45,47,49,51,53,55,57,59,61,-1,-1,-1,-1,-1,-1,-1,-1,-1,-1,-1,-1,-1,-1,-1,-1,-1,-1,-1,-1,-1,-1,-1,-1,-1,-1,-1,-1,-1,-1,-1,-1],"loss_changes":[2.600537E1,2.0214668E1,2.1928654E1,1.7616716E1,1.0724636E1,1.4780746E1,1.210286E1,6.0565376E0,8.691587E0,7.5588207E0,1.5868451E1,1.2047802E1,6.892552E0,1.0826437E1,1.49155E1,3.6378303E0,6.388962E0,1.4110519E1,1.0901235E1,4.4377775E0,7.4112015E0,2.3255886E1,1.5399527E1,9.894585E0,1.2669142E1,6.4064517E0,8.716912E0,1.2026884E1,7.1619706E0,6.061123E0,9.141204E0,0E0,0E0,0E0,0E0,0E0,0E0,0E0,0E0,0E0,0E0,0E0,0E0,0E0,0E0,0E0,0E0,0E0,0E0,0E0,0E0,0E0,0E0,0E0,0E0,0E0,0E0,0E0,0E0,0E0,0E0,0E0,0E0],"parents":[2147483647,0,0,1,1,2,2,3,3,4,4,5,5,6,6,7,7,8,8,9,9,10,10,11,11,12,12,13,13,14,14,15,15,16,16,17,17,18,18,19,19,20,20,21,21,22,22,23,23,24,24,25,25,26,26,27,27,28,28,29,29,30,30],"right_children":[2,4,6,8,10,12,14,16,18,20,22,24,26,28,30,32,34,36,38,40,42,44,46,48,50,52,54,56,58,60,62,-1,-1,-1,-1,-1,-1,-1,-1,-1,-1,-1,-1,-1,-1,-1,-1,-1,-1,-1,-1,-1,-1,-1,-1,-1,-1,-1,-1,-1,-1,-1,-1],"split_conditions":[1.1E1,2E0,1.2E1,-6.4845794E-1,2.6882803E-1,1.7924477E2,1.600754E-2,-2.5110738E-2,2.061857E-2,-5.291408E-2,3E0,-7.121015E-3,5.6852795E1,2.9772131E0,5.372123E1,8E0,5.4102757E1,1E0,6.63306E1,3.552124E-2,6.800183E-1,1.6055765E0,4E0,-2.4972388E-1,2.0936282E0,2.1924957E2,6.1539635E1,2.152357E1,-8.273379E-2,1E0,9.634971E-2,2.0833759E-2,-2.1017484E-2,-3.6495797E-2,-1.051025E-2,-1.1122823E-3,-7.5991E-3,4.9257013E-3,-7.913961E-3,-2.9642304E-2,2.7510092E-2,8.782535E-3,-2.001005E-3,8.285649E-3,-3.1370346E-2,-5.889192E-3,2.719234E-3,2.5367318E-3,2.6553873E-2,9.315669E-3,-3.131103E-2,-3.4133613E-2,6.2107844E-3,-6.660216E-2,-1.465748E-3,-1.0085925E-3,-3.7394416E-2,-2.7181229E-2,5.911141E-3,-6.103767E-2,-2.2135396E-2,4.159394E-3,-1.8601058E-2],"split_indices":[10,9,10,8,5,2,6,6,6,6,9,1,0,2,0,10,0,9,0,7,2,8,10,8,8,3,0,4,6,9,8,0,0,0,0,0,0,0,0,0,0,0,0,0,0,0,0,0,0,0,0,0,0,0,0,0,0,0,0,0,0,0,0],"split_type":[0,0,0,0,0,0,0,0,0,0,0,0,0,0,0,0,0,0,0,0,0,0,0,0,0,0,0,0,0,0,0,0,0,0,0,0,0,0,0,0,0,0,0,0,0,0,0,0,0,0,0,0,0,0,0,0,0,0,0,0,0,0,0],"sum_hessian":[1.3011631E4,1.0801626E4,2.2100046E3,4.3138574E3,6.4877686E3,1.1469701E3,1.0630347E3,1.2282037E2,4.191037E3,2.740098E3,3.747671E3,1.0701335E3,7.683651E1,7.999139E2,2.631208E2,1.9306036E1,1.03514336E2,3.35646E3,8.345771E2,3.5576633E1,2.7045212E3,1.2498314E3,2.4978396E3,2.4222977E2,8.279038E2,5.7119236E1,1.9717276E1,1.0765863E2,6.9225525E2,6.005436E1,2.0306644E2,1.1305583E1,8.000454E0,6.496824E1,3.8546097E1,1.7315397E3,1.6249203E3,6.0874915E2,2.2582794E2,3.258047E1,2.9961643E0,1.6902983E2,2.5354912E3,1.2126654E3,3.7165974E1,7.3551074E2,1.7623289E3,5.5909283E1,1.8632048E2,8.0920435E2,1.8699432E1,1.1476083E1,4.564315E1,9.979109E0,9.738168E0,7.6285904E1,3.137273E1,1.5779396E1,6.764758E2,1.2645796E1,4.7408566E1,1.3978412E2,6.3282322E1],"tree_param":{"num_deleted":"0","num_feature":"11","num_nodes":"63","size_leaf_vector":"1"}},{"base_weights":[-1.286176E-4,-5.2576996E-2,3.4808286E-2,-2.583198E-1,-3.5736177E-2,1.4195274E-2,1.3595177E-1,-1.2541576E-1,-4.365005E-1,-1.5035106E-1,-1.9853037E-2,-1.3027848E-2,7.237991E-2,1.039886E-1,2.9340804E-1,2.0822017E-1,-2.0580864E-1,-4.628621E-1,9.405282E-1,-1.6601504E-1,6.125378E-1,-6.619105E-2,2.5080314E-2,1.1256675E-1,-3.52331E-2,1.2209402E-1,-1.304038E-1,2.1025069E-1,1.343924E-2,1.3369259E-1,6.6504043E-1,2.3783424E-3,3.5531104E-2,-3.0186117E-2,-4.528575E-3,-3.894117E-2,-1.7350936E-2,1.3966692E-2,5.9099298E-2,1.51392715E-2,-9.2595285E-3,-5.3000697E-3,4.1875426E-2,1.4005788E-3,-7.93207E-3,7.070228E-3,-1.810997E-3,2.6957363E-2,2.6969975E-3,-1.0014692E-2,-8.5786276E-4,8.09074E-3,-1.3925264E-3,-1.6739138E-3,-2.4007527E-2,6.483476E-3,2.2993153E-2,-8.989256E-3,4.8268246E-3,1.7629063E-2,-6.114421E-3,4.121778E-2,-1.3780613E-2],"categories":[],"categories_nodes":[],"categories_segments":[],"categories_sizes":[],"default_left":[0,0,0,0,0,0,0,0,0,0,0,0,0,0,0,0,0,0,0,0,0,0,0,0,0,0,0,0,0,0,0,0,0,0,0,0,0,0,0,0,0,0,0,0,0,0,0,0,0,0,0,0,0,0,0,0,0,0,0,0,0,0,0],"id":15,"left_children":[1,3,5,7,9,11,13,15,17,19,21,23,25,27,29,31,33,35,37,39,41,43,45,47,49,51,53,55,57,59,61,-1,-1,-1,-1,-1,-1,-1,-1,-1,-1,-1,-1,-1,-1,-1,-1,-1,-1,-1,-1,-1,-1,-1,-1,-1,-1,-1,-1,-1,-1,-1,-1],"loss_changes":[2.3840437E1,1.8013962E1,1.6278694E1,9.261383E0,8.752041E0,1.0277755E1,6.6224117E0,6.124273E0,6.521841E0,7.0946846E0,8.798805E0,1.2333114E1,2.0865513E1,1.0585167E1,1.3118521E1,3.5597067E0,8.346338E0,5.7760124E0,2.2531176E-1,5.217906E0,2.0264707E0,1.8121967E1,1.5306049E1,1.6587482E1,1.1207293E1,9.900137E0,1.3804115E1,1.0122202E1,9.574025E0,8.833387E0,1.0212826E1,0E0,0E0,0E0,0E0,0E0,0E0,0E0,0E0,0E0,0E0,0E0,0E0,0E0,0E0,0E0,0E0,0E0,0E0,0E0,0E0,0E0,0E0,0E0,0E0,0E0,0E0,0E0,0E0,0E0,0E0,0E0,0E0],"parents":[2147483647,0,0,1,1,2,2,3,3,4,4,5,5,6,6,7,7,8,8,9,9,10,10,11,11,12,12,13,13,14,14,15,15,16,16,17,17,18,18,19,19,20,20,21,21,22,22,23,23,24,24,25,25,26,26,27,27,28,28,29,29,30,30],"right_children":[2,4,6,8,10,12,14,16,18,20,22,24,26,28,30,32,34,36,38,40,42,44,46,48,50,52,54,56,58,60,62,-1,-1,-1,-1,-1,-1,-1,-1,-1,-1,-1,-1,-1,-1,-1,-1,-1,-1,-1,-1,-1,-1,-1,-1,-1,-1,-1,-1,-1,-1,-1,-1],"split_conditions":[2E0,-4.6911144E-1,1.1E1,8E0,8.36865E0,3.3506002E-2,7.0072266E1,-1.6339917E-2,8.421173E1,5.783397E0,7E0,3.6667755E1,9E0,-4.6249028E-4,4E0,-2.1108542E-2,-7.8307223E-1,9E0,3.2258146E-2,3.6406975E1,-1.4906856E-1,1E0,-7.185735E-3,3E0,-4.4684798E-1,2.624434E-2,8.2215E1,5.6852795E1,5.7614E0,1.4919107E-1,4.388464E1,2.3783424E-3,3.5531104E-2,-3.0186117E-2,-4.528575E-3,-3.894117E-2,-1.7350936E-2,1.3966692E-2,5.9099298E-2,1.51392715E-2,-9.2595285E-3,-5.3000697E-3,4.1875426E-2,1.4005788E-3,-7.93207E-3,7.070228E-3,-1.810997E-3,2.6957363E-2,2.6969975E-3,-1.0014692E-2,-8.5786276E-4,8.09074E-3,-1.3925264E-3,-1.6739138E-3,-2.4007527E-2,6.483476E-3,2.2993153E-2,-8.989256E-3,4.8268246E-3,1.7629063E-2,-6.114421E-3,4.121778E-2,-1.3780613E-2],"split_indices":[9,8,10,10,4,1,0,6,0,5,10,0,10,1,9,6,8,10,6,0,8,9,6,10,8,6,2,0,3,1,4,0,0,0,0,0,0,0,0,0,0,0,0,0,0,0,0,0,0,0,0,0,0,0,0,0,0,0,0,0,0,0,0],"split_type":[0,0,0,0,0,0,0,0,0,0,0,0,0,0,0,0,0,0,0,0,0,0,0,0,0,0,0,0,0,0,0,0,0,0,0,0,0,0,0,0,0,0,0,0,0,0,0,0,0,0,0,0,0,0,0,0,0,0,0,0,0,0,0],"sum_hessian":[1.3008614E4,5.200682E3,7.8079326E3,3.9240204E2,4.80828E3,6.48702E3,1.3209124E3,2.2573291E2,1.6666913E2,5.8419366E2,4.2240864E3,4.419857E3,2.0671633E3,1.0993981E3,2.2151428E2,4.3522312E1,1.822106E2,1.6418977E2,2.479351E0,5.7320667E2,1.0986955E1,2.0793062E3,2.1447803E3,6.63422E2,3.7564348E3,1.6604806E3,4.0668265E2,5.0520477E2,5.9419324E2,1.5588133E2,6.563295E1,3.3806625E1,9.715684E0,3.9966694E1,1.422439E2,4.2513012E1,1.21676765E2,1.240179E0,1.2391721E0,2.1943575E1,5.512631E2,2.7458236E0,8.241132E0,1.0302382E3,1.049068E3,7.397373E2,1.405043E3,7.9169846E1,5.8425214E2,3.6977054E2,3.3866643E3,1.3126709E3,3.4780975E2,3.192926E2,8.7390045E1,3.830621E2,1.2214266E2,1.783398E2,4.1585345E2,8.3825226E1,7.20561E1,5.623265E1,9.400296E0],"tree_param":{"num_deleted":"0","num_feature":"11","num_nodes":"63","size_leaf_vector":"1"}},{"base_weights":[-1.13260685E-4,-1.859046E-2,9.020337E-2,-6.684617E-2,1.3486359E-2,1.8182021E-1,-8.681629E-3,-4.1005903E-1,-5.680386E-2,-3.4186703E-1,1.795852E-2,2.2845213E-1,-7.192544E-2,4.9476005E-2,-1.8502884E-1,-2.5583002E-1,-7.102199E-1,-4.504135E-2,-2.2158328E-1,3.2685092E-1,-6.7223954E-1,-4.153133E-2,4.512867E-2,2.4456099E-1,-4.7853872E-1,1.6971247E-1,-1.9696948E-1,-2.268229E-1,9.270729E-2,-5.9628606E-1,-6.1164152E-2,1.7476583E-2,-2.0246057E-2,-6.021614E-2,-1.0462581E-2,-3.6166888E-3,1.9365437E-3,4.3744817E-2,-1.2236516E-2,7.8062445E-2,-3.3755172E-3,-6.578406E-2,-2.0885263E-2,-6.8764323E-3,3.2110224E-4,3.2035261E-3,-5.367678E-3,1.8697059E-2,8.281334E-3,-3.367642E-2,4.901765E-2,-3.0885006E-3,4.557191E-2,1.54875815E-2,-1.7859694E-2,-9.3502813E-4,-3.5860382E-2,-2.6139561E-2,5.3910073E-3,-5.833548E-2,-2.1202264E-2,3.7468392E-3,-1.7913738E-2],"categories":[],"categories_nodes":[],"categories_segments":[],"categories_sizes":[],"default_left":[0,0,0,0,0,0,0,0,0,0,0,0,0,0,0,0,0,0,0,0,0,0,0,0,0,0,0,0,0,0,0,0,0,0,0,0,0,0,0,0,0,0,0,0,0,0,0,0,0,0,0,0,0,0,0,0,0,0,0,0,0,0,0],"id":16,"left_children":[1,3,5,7,9,11,13,15,17,19,21,23,25,27,29,31,33,35,37,39,41,43,45,47,49,51,53,55,57,59,61,-1,-1,-1,-1,-1,-1,-1,-1,-1,-1,-1,-1,-1,-1,-1,-1,-1,-1,-1,-1,-1,-1,-1,-1,-1,-1,-1,-1,-1,-1,-1,-1],"loss_changes":[2.1707531E1,1.6716036E1,2.001606E1,1.4838932E1,1.0316188E1,1.358609E1,1.0915518E1,5.4856777E0,8.112432E0,1.804449E1,1.0359271E1,1.1152832E1,5.4357705E0,9.582549E0,1.340875E1,7.58144E0,9.894159E0,8.948587E0,7.294114E0,1.3420443E1,8.348461E0,9.251695E0,1.2713467E1,9.62035E0,6.8973274E0,1.0617139E1,9.7141485E0,1.10694895E1,6.501555E0,5.4965725E0,8.274421E0,0E0,0E0,0E0,0E0,0E0,0E0,0E0,0E0,0E0,0E0,0E0,0E0,0E0,0E0,0E0,0E0,0E0,0E0,0E0,0E0,0E0,0E0,0E0,0E0,0E0,0E0,0E0,0E0,0E0,0E0,0E0,0E0],"parents":[2147483647,0,0,1,1,2,2,3,3,4,4,5,5,6,6,7,7,8,8,9,9,10,10,11,11,12,12,13,13,14,14,15,15,16,16,17,17,18,18,19,19,20,20,21,21,22,22,23,23,24,24,25,25,26,26,27,27,28,28,29,29,30,30],"right_children":[2,4,6,8,10,12,14,16,18,20,22,24,26,28,30,32,34,36,38,40,42,44,46,48,50,52,54,56,58,60,62,-1,-1,-1,-1,-1,-1,-1,-1,-1,-1,-1,-1,-1,-1,-1,-1,-1,-1,-1,-1,-1,-1,-1,-1,-1,-1,-1,-1,-1,-1,-1,-1],"split_conditions":[1.1E1,2E0,1.2E1,-6.4845794E-1,-7.047617E-2,8.3264E1,1.600754E-2,8E0,1.1682539E0,3E0,1.6712898E-1,2.0936282E0,-2.6691894E-3,2.9772131E0,5.372123E1,-1.996606E-2,9E0,1.7023256E-2,2.5843472E1,-7.8307223E-1,3E0,-2.0847234E-1,1E1,9.384948E-3,2.9549027E-2,-1.9092238E-1,-9.367633E-3,2.152357E1,-8.273379E-2,1E0,9.634971E-2,1.7476583E-2,-2.0246057E-2,-6.021614E-2,-1.0462581E-2,-3.6166888E-3,1.9365437E-3,4.3744817E-2,-1.2236516E-2,7.8062445E-2,-3.3755172E-3,-6.578406E-2,-2.0885263E-2,-6.8764323E-3,3.2110224E-4,3.2035261E-3,-5.367678E-3,1.8697059E-2,8.281334E-3,-3.367642E-2,4.901765E-2,-3.0885006E-3,4.557191E-2,1.54875815E-2,-1.7859694E-2,-9.3502813E-4,-3.5860382E-2,-2.6139561E-2,5.3910073E-3,-5.833548E-2,-2.1202264E-2,3.7468392E-3,-1.7913738E-2],"split_indices":[10,9,10,8,6,3,6,10,8,10,5,8,1,2,0,6,10,6,0,8,9,8,10,1,7,1,6,4,6,9,8,0,0,0,0,0,0,0,0,0,0,0,0,0,0,0,0,0,0,0,0,0,0,0,0,0,0,0,0,0,0,0,0],"split_type":[0,0,0,0,0,0,0,0,0,0,0,0,0,0,0,0,0,0,0,0,0,0,0,0,0,0,0,0,0,0,0,0,0,0,0,0,0,0,0,0,0,0,0,0,0,0,0,0,0,0,0,0,0,0,0,0,0,0,0,0,0,0,0],"sum_hessian":[1.3005878E4,1.079766E4,2.2082178E3,4.311078E3,6.4865815E3,1.1457981E3,1.0624196E3,1.214226E2,4.1896553E3,7.968207E1,6.4069E3,9.6800366E2,1.7779446E2,7.994785E2,2.6294098E2,8.1432945E1,3.998966E1,3.9116985E3,2.779569E2,2.6352253E1,5.332981E1,2.0085629E3,4.398337E3,9.470785E2,2.092519E1,6.0508762E1,1.17285706E2,1.0759201E2,6.9188654E2,5.9980125E1,2.0296086E2,1.5826685E1,6.5606255E1,1.9425943E1,2.0563715E1,2.950562E3,9.611366E2,4.985709E0,2.7297122E2,5.664078E0,2.0688173E1,1.3934802E1,3.9395008E1,6.6847754E2,1.3400853E3,3.9128494E3,4.854875E2,3.574498E2,5.896287E2,1.8933008E1,1.9921818E0,4.681512E1,1.3693639E1,2.795206E1,8.933364E1,7.626346E1,3.1328552E1,1.5776279E1,6.761102E2,1.2571705E1,4.740842E1,1.3971004E2,6.325083E1],"tree_param":{"num_deleted":"0","num_feature":"11","num_nodes":"63","size_leaf_vector":"1"}},{"base_weights":[-1.1894387E-4,-4.7902457E-2,3.170241E-2,-2.3975164E-1,-3.2261774E-2,1.2809694E-2,1.24508806E-1,-3.3495957E-1,-2.8181614E-3,1.2921786E-2,-6.866492E-2,-3.253751E-1,1.7059924E-2,1.2885877E-1,-9.929738E-1,-6.527402E-1,-2.7660018E-1,-2.933071E-1,1.8024537E-1,-1.0009116E-2,2.1429208E-1,9.667412E-3,-1.2370843E-1,3.1390062E-1,-6.409846E-1,-3.946176E-2,4.2872842E-2,3.6921382E-2,1.8590014E-1,-6.850226E-4,-6.9127396E-2,-5.209772E-3,-4.1491624E-2,-7.147512E-3,-2.237429E-2,-2.0435486E-2,2.1119708E-2,-3.014659E-2,1.3094211E-2,8.24202E-4,-1.1747554E-2,6.4529562E-3,2.711141E-2,-1.823913E-2,2.2282011E-3,-3.1995997E-2,-5.241776E-3,7.532393E-2,-3.2147956E-3,-6.282747E-2,-1.98854E-2,-6.53497E-3,3.0505718E-4,5.907896E-3,2.5712018E-4,1.10508605E-4,1.717428E-2,1.1194731E-2,-3.9284527E-3],"categories":[],"categories_nodes":[],"categories_segments":[],"categories_sizes":[],"default_left":[0,0,0,0,0,0,0,0,0,0,0,0,0,0,0,0,0,0,0,0,0,0,0,0,0,0,0,0,0,0,0,0,0,0,0,0,0,0,0,0,0,0,0,0,0,0,0,0,0,0,0,0,0,0,0,0,0,0,0],"id":17,"left_children":[1,3,5,7,9,11,13,15,17,19,21,23,25,27,29,31,33,35,37,39,41,43,45,47,49,51,53,55,57,-1,-1,-1,-1,-1,-1,-1,-1,-1,-1,-1,-1,-1,-1,-1,-1,-1,-1,-1,-1,-1,-1,-1,-1,-1,-1,-1,-1,-1,-1],"loss_changes":[1.977478E1,1.5591727E1,1.3685958E1,8.835545E0,7.9091425E0,9.329993E0,6.5457745E0,5.0015907E0,6.0777E0,9.912009E0,1.1482608E1,1.6456598E1,9.350341E0,6.894699E0,1.9779267E0,4.0536633E0,5.3673306E0,3.8214579E0,4.6410675E0,1.1491611E1,6.0637655E0,1.4388367E1,1.5169888E1,1.2410159E1,7.626869E0,8.353929E0,1.2495576E1,5.37446E0,8.175827E0,0E0,0E0,0E0,0E0,0E0,0E0,0E0,0E0,0E0,0E0,0E0,0E0,0E0,0E0,0E0,0E0,0E0,0E0,0E0,0E0,0E0,0E0,0E0,0E0,0E0,0E0,0E0,0E0,0E0,0E0],"parents":[2147483647,0,0,1,1,2,2,3,3,4,4,5,5,6,6,7,7,8,8,9,9,10,10,11,11,12,12,13,13,14,14,15,15,16,16,17,17,18,18,19,19,20,20,21,21,22,22,23,23,24,24,25,25,26,26,27,27,28,28],"right_children":[2,4,6,8,10,12,14,16,18,20,22,24,26,28,30,32,34,36,38,40,42,44,46,48,50,52,54,56,58,-1,-1,-1,-1,-1,-1,-1,-1,-1,-1,-1,-1,-1,-1,-1,-1,-1,-1,-1,-1,-1,-1,-1,-1,-1,-1,-1,-1,-1,-1],"split_conditions":[2E0,-4.6911144E-1,1.1E1,5.9520424E1,-1.5052838E-3,-7.047617E-2,5.0817468E2,1.8653762E0,1.6143612E1,-3.707625E-3,-5.276175E-2,3E0,1.6712898E-1,2.603096E-1,-1.2502828E0,-1.9624615E-2,8E0,3.7308004E-2,-1.089258E-3,-5.8364007E-3,1.1E1,7.0836744E-4,-3.9568253E-2,-7.8307223E-1,3E0,-2.0847234E-1,3E0,7.0072266E1,5.467885E-1,-6.850226E-4,-6.9127396E-2,-5.209772E-3,-4.1491624E-2,-7.147512E-3,-2.237429E-2,-2.0435486E-2,2.1119708E-2,-3.014659E-2,1.3094211E-2,8.24202E-4,-1.1747554E-2,6.4529562E-3,2.711141E-2,-1.823913E-2,2.2282011E-3,-3.1995997E-2,-5.241776E-3,7.532393E-2,-3.2147956E-3,-6.282747E-2,-1.98854E-2,-6.53497E-3,3.0505718E-4,5.907896E-3,2.5712018E-4,1.10508605E-4,1.717428E-2,1.1194731E-2,-3.9284527E-3],"split_indices":[9,8,10,0,7,6,2,2,4,7,8,10,5,5,1,6,10,7,1,7,10,7,6,8,9,8,9,0,1,0,0,0,0,0,0,0,0,0,0,0,0,0,0,0,0,0,0,0,0,0,0,0,0,0,0,0,0,0,0],"split_type":[0,0,0,0,0,0,0,0,0,0,0,0,0,0,0,0,0,0,0,0,0,0,0,0,0,0,0,0,0,0,0,0,0,0,0,0,0,0,0,0,0,0,0,0,0,0,0,0,0,0,0,0,0,0,0,0,0,0,0],"sum_hessian":[1.3003139E4,5.1976895E3,7.8054487E3,3.9072415E2,4.8069653E3,6.4861855E3,1.319263E3,2.7842844E2,1.1229573E2,2.1451062E3,2.6618591E3,7.956737E1,6.406618E3,1.3150287E3,4.2342615E0,4.1618885E1,2.3680954E2,4.3177917E1,6.911781E1,1.9266595E3,2.184467E2,1.0988755E3,1.5629836E3,2.6300467E1,5.3266907E1,2.0083885E3,4.39823E3,5.0413214E2,8.1089655E2,1.4996799E0,2.7345817E0,1.0544765E1,3.107412E1,1.3391269E2,1.0289685E2,3.7551846E1,5.626074E0,5.921958E0,6.3195854E1,1.7244807E3,2.0217874E2,1.7448924E2,4.3957462E1,9.287274E1,1.00600275E3,5.3967194E1,1.5090165E3,5.6140857E0,2.068638E1,1.3908645E1,3.935826E1,6.6829333E2,1.3400952E3,1.4676456E3,2.9305842E3,4.537615E2,5.0370647E1,7.091686E2,1.01728004E2],"tree_param":{"num_deleted":"0","num_feature":"11","num_nodes":"59","size_leaf_vector":"1"}},{"base_weights":[-1.2763296E-4,-1.7034132E-2,8.2558215E-2,-1.2898193E-1,-5.422373E-3,1.6994368E-1,-1.1706593E-2,-2.2966099E-1,-9.607112E-3,5.089399E-3,-1.4033628E-1,1.9771908E-1,-2.1401528E-1,4.387636E-2,-1.8026127E-1,-3.3525413E-1,-8.635965E-2,4.733424E-3,-8.884922E-1,7.7268615E-2,-1.1726766E-2,-1.9993144E-1,1.8350731E-1,4.8442837E-3,2.4605487E-1,-1.3129307E-1,-1.280352E0,-5.3494227E-1,6.2785305E-2,-5.7267076E-1,-6.2210437E-2,-2.7466426E-2,-9.707822E-3,6.1931084E-3,-1.5243642E-2,-3.4115923E-4,5.299095E-2,1.0534398E-2,-5.7076182E-2,1.6199307E-3,1.0697164E-2,-1.4197252E-2,-2.314104E-4,-6.7083635E-3,-2.0692173E-2,-1.204083E-2,2.2738451E-2,1.1062812E-2,-1.2901964E-2,1.9631712E-2,7.880469E-3,-1.8260028E-2,6.6345125E-3,-1.0626837E-2,-7.71588E-2,-4.8594825E-2,2.9754534E-2,-2.6607276E-3,7.734664E-3,-5.587965E-2,-2.0456163E-2,3.352195E-3,-1.7217403E-2],"categories":[],"categories_nodes":[],"categories_segments":[],"categories_sizes":[],"default_left":[0,0,0,0,0,0,0,0,0,0,0,0,0,0,0,0,0,0,0,0,0,0,0,0,0,0,0,0,0,0,0,0,0,0,0,0,0,0,0,0,0,0,0,0,0,0,0,0,0,0,0,0,0,0,0,0,0,0,0,0,0,0,0],"id":18,"left_children":[1,3,5,7,9,11,13,15,17,19,21,23,25,27,29,31,33,35,37,39,41,43,45,47,49,51,53,55,57,59,61,-1,-1,-1,-1,-1,-1,-1,-1,-1,-1,-1,-1,-1,-1,-1,-1,-1,-1,-1,-1,-1,-1,-1,-1,-1,-1,-1,-1,-1,-1,-1,-1],"loss_changes":[1.8176273E1,1.4031911E1,1.8183773E1,1.2189926E1,1.3872842E1,1.2258362E1,9.964618E0,8.297564E0,5.867084E0,1.1016588E1,1.3682935E1,9.962238E0,6.6905046E0,8.789594E0,1.2182124E1,9.452526E0,1.0823543E1,5.6002364E0,2.3190951E0,1.05104885E1,1.4223796E1,8.352203E0,1.2818875E1,1.2298898E1,1.1016651E1,4.5727167E0,1.2108946E0,1.3126703E1,8.277127E0,4.967766E0,7.457776E0,0E0,0E0,0E0,0E0,0E0,0E0,0E0,0E0,0E0,0E0,0E0,0E0,0E0,0E0,0E0,0E0,0E0,0E0,0E0,0E0,0E0,0E0,0E0,0E0,0E0,0E0,0E0,0E0,0E0,0E0,0E0,0E0],"parents":[2147483647,0,0,1,1,2,2,3,3,4,4,5,5,6,6,7,7,8,8,9,9,10,10,11,11,12,12,13,13,14,14,15,15,16,16,17,17,18,18,19,19,20,20,21,21,22,22,23,23,24,24,25,25,26,26,27,27,28,28,29,29,30,30],"right_children":[2,4,6,8,10,12,14,16,18,20,22,24,26,28,30,32,34,36,38,40,42,44,46,48,50,52,54,56,58,60,62,-1,-1,-1,-1,-1,-1,-1,-1,-1,-1,-1,-1,-1,-1,-1,-1,-1,-1,-1,-1,-1,-1,-1,-1,-1,-1,-1,-1,-1,-1,-1,-1],"split_conditions":[1.1E1,-4.4684798E-1,1.2E1,5.3455956E1,1.029829E0,1.7924477E2,1.600754E-2,1.17198E1,2.752885E2,-1.3478903E-1,4E0,1E0,9.189541E-1,-6.276766E-2,5.372123E1,-8.4693115E-3,1.4727878E-3,2.1924957E2,-6.4845794E-1,-2.1867557E-1,-4.5801487E-2,2.2734499E1,-1.8547463E-3,4.372228E-3,9.384948E-3,-2.117706E-2,1.0820991E1,3E0,2.603096E-1,1E0,9.634971E-2,-2.7466426E-2,-9.707822E-3,6.1931084E-3,-1.5243642E-2,-3.4115923E-4,5.299095E-2,1.0534398E-2,-5.7076182E-2,1.6199307E-3,1.0697164E-2,-1.4197252E-2,-2.314104E-4,-6.7083635E-3,-2.0692173E-2,-1.204083E-2,2.2738451E-2,1.1062812E-2,-1.2901964E-2,1.9631712E-2,7.880469E-3,-1.8260028E-2,6.6345125E-3,-1.0626837E-2,-7.71588E-2,-4.8594825E-2,2.9754534E-2,-2.6607276E-3,7.734664E-3,-5.587965E-2,-2.0456163E-2,3.352195E-3,-1.7217403E-2],"split_indices":[10,8,10,0,8,2,6,3,2,1,9,9,8,6,0,7,6,3,8,1,6,4,1,6,1,8,4,9,5,9,8,0,0,0,0,0,0,0,0,0,0,0,0,0,0,0,0,0,0,0,0,0,0,0,0,0,0,0,0,0,0,0,0],"split_type":[0,0,0,0,0,0,0,0,0,0,0,0,0,0,0,0,0,0,0,0,0,0,0,0,0,0,0,0,0,0,0,0,0,0,0,0,0,0,0,0,0,0,0,0,0,0,0,0,0,0,0,0,0,0,0,0,0,0,0,0,0,0,0],"sum_hessian":[1.3000287E4,1.0794057E4,2.2062307E3,1.01344336E3,9.780613E3,1.1444752E3,1.0617555E3,5.4927155E2,4.641718E2,9.074536E3,7.060772E2,1.0677218E3,7.675341E1,7.990115E2,2.6274408E2,3.154726E2,2.3379895E2,4.5769827E2,6.4735274E0,1.714004E3,7.3605317E3,5.966598E2,1.0941741E2,2.1417946E2,8.5354236E2,7.227011E1,4.483304E0,2.4413183E1,7.7459827E2,5.9872498E1,2.0287157E2,1.2417708E2,1.9129552E2,1.19380974E2,1.1441797E2,4.5372208E2,3.976195E0,1.2426673E0,5.23086E0,1.2913076E3,4.2269644E2,1.8606941E2,7.1744624E3,4.576034E2,1.3905638E2,4.2713936E1,6.6703476E1,1.175598E2,9.661965E1,3.1991418E2,5.336281E2,3.8114555E1,3.4155552E1,1.2427715E0,3.2405324E0,1.7706488E1,6.7066965E0,3.426059E2,4.3199237E2,1.2474709E1,4.739779E1,1.3965463E2,6.321693E1],"tree_param":{"num_deleted":"0","num_feature":"11","num_nodes":"63","size_leaf_vector":"1"}},{"base_weights":[-1.399969E-4,-4.494278E-2,2.9694436E-2,-2.2290039E-1,-3.0475277E-2,8.686478E-3,1.0634443E-1,-1.0043935E-1,-3.8787585E-1,-1.3869008E-1,-1.5484591E-2,7.913651E-2,-2.6713304E-2,3.2506093E-2,2.547155E-1,-2.0159757E-1,1.3742931E-1,-4.130022E-1,9.0275955E-1,-1.5357113E-1,5.8516246E-1,2.1655286E-2,-6.2218316E-2,2.4844451E-1,1.16802E-2,-1.1780171E-1,3.519487E-2,4.3263588E-2,-7.6665705E-1,3.3045056E-1,-1.1838785E-1,-3.0362949E-2,-4.2382367E-3,3.751151E-2,-9.836679E-4,-3.5196878E-2,-1.5410763E-2,5.7396945E-2,1.27479285E-2,1.457379E-2,-8.590158E-3,-9.433709E-5,4.3942202E-2,2.1437635E-3,-1.1547476E-2,2.0059E-3,-5.8936835E-3,1.4844124E-2,-2.1496747E-2,-1.8183863E-2,1.9662378E-3,-3.9241886E-6,-8.268199E-3,-2.4582376E-3,5.999482E-3,-9.546226E-4,1.049387E-2,3.1912766E-2,-4.703962E-2,6.306126E-4,2.1010978E-2,2.0813564E-2,-1.7795783E-2],"categories":[],"categories_nodes":[],"categories_segments":[],"categories_sizes":[],"default_left":[0,0,0,0,0,0,0,0,0,0,0,0,0,0,0,0,0,0,0,0,0,0,0,0,0,0,0,0,0,0,0,0,0,0,0,0,0,0,0,0,0,0,0,0,0,0,0,0,0,0,0,0,0,0,0,0,0,0,0,0,0,0,0],"id":19,"left_children":[1,3,5,7,9,11,13,15,17,19,21,23,25,27,29,31,33,35,37,39,41,43,45,47,49,51,53,55,57,59,61,-1,-1,-1,-1,-1,-1,-1,-1,-1,-1,-1,-1,-1,-1,-1,-1,-1,-1,-1,-1,-1,-1,-1,-1,-1,-1,-1,-1,-1,-1,-1,-1],"loss_changes":[1.7376675E1,1.3371981E1,1.2564859E1,7.8510838E0,7.795684E0,1.5279783E1,1.8381565E1,5.453765E0,5.757244E0,6.3885107E0,7.3314295E0,2.3398365E1,2.3000406E1,9.678656E0,1.5796303E1,7.466296E0,6.5496364E0,4.7691326E0,2.6077294E-1,4.7055807E0,2.0682673E0,1.2627207E1,1.0657189E1,1.9308483E1,1.5229093E1,9.240528E0,1.7378658E1,1.151549E1,4.259246E0,1.3228085E1,1.2191189E1,0E0,0E0,0E0,0E0,0E0,0E0,0E0,0E0,0E0,0E0,0E0,0E0,0E0,0E0,0E0,0E0,0E0,0E0,0E0,0E0,0E0,0E0,0E0,0E0,0E0,0E0,0E0,0E0,0E0,0E0,0E0,0E0],"parents":[2147483647,0,0,1,1,2,2,3,3,4,4,5,5,6,6,7,7,8,8,9,9,10,10,11,11,12,12,13,13,14,14,15,15,16,16,17,17,18,18,19,19,20,20,21,21,22,22,23,23,24,24,25,25,26,26,27,27,28,28,29,29,30,30],"right_children":[2,4,6,8,10,12,14,16,18,20,22,24,26,28,30,32,34,36,38,40,42,44,46,48,50,52,54,56,58,60,62,-1,-1,-1,-1,-1,-1,-1,-1,-1,-1,-1,-1,-1,-1,-1,-1,-1,-1,-1,-1,-1,-1,-1,-1,-1,-1,-1,-1,-1,-1,-1,-1],"split_conditions":[2E0,-4.6911144E-1,6.3416607E1,8E0,8.36865E0,3E0,4E0,5.9520424E1,8.421173E1,5.783397E0,1.6696074E1,4.247665E1,4.6716194E1,3.18675E2,3.4590595E1,3E0,-3.960419E-3,9E0,2.910185E0,3.6406975E1,-8.230452E-3,4.161238E-2,-1.4073305E-1,8.248877E-1,-3.30688E-2,3.6667755E1,4E0,3.1713423E1,6.6984158E0,4E0,-5.8364007E-3,-3.0362949E-2,-4.2382367E-3,3.751151E-2,-9.836679E-4,-3.5196878E-2,-1.5410763E-2,5.7396945E-2,1.27479285E-2,1.457379E-2,-8.590158E-3,-9.433709E-5,4.3942202E-2,2.1437635E-3,-1.1547476E-2,2.0059E-3,-5.8936835E-3,1.4844124E-2,-2.1496747E-2,-1.8183863E-2,1.9662378E-3,-3.9241886E-6,-8.268199E-3,-2.4582376E-3,5.999482E-3,-9.546226E-4,1.049387E-2,3.1912766E-2,-4.703962E-2,6.306126E-4,2.1010978E-2,2.0813564E-2,-1.7795783E-2],"split_indices":[9,8,0,10,4,9,9,0,0,5,3,0,0,2,4,10,6,10,2,0,7,6,1,8,6,0,9,3,5,10,7,0,0,0,0,0,0,0,0,0,0,0,0,0,0,0,0,0,0,0,0,0,0,0,0,0,0,0,0,0,0,0,0],"split_type":[0,0,0,0,0,0,0,0,0,0,0,0,0,0,0,0,0,0,0,0,0,0,0,0,0,0,0,0,0,0,0,0,0,0,0,0,0,0,0,0,0,0,0,0,0,0,0,0,0,0,0,0,0,0,0,0,0,0,0,0,0,0,0],"sum_hessian":[1.2998018E4,5.1954424E3,7.802575E3,3.895368E2,4.805906E3,6.1249766E3,1.6775986E3,2.2449977E2,1.6503703E2,5.837412E2,4.2221646E3,2.0479874E3,4.076989E3,1.1209604E3,5.5663806E2,1.5762093E2,6.687885E1,1.6255243E2,2.4845998E0,5.7275433E2,1.0986909E1,2.3528564E3,1.869308E3,5.827259E2,1.4652616E3,1.6493378E3,2.4276511E3,1.107005E3,1.3955474E1,4.6280835E2,9.382971E1,3.430636E1,1.2331457E2,1.2876572E1,5.4002277E1,4.152968E1,1.2102275E2,1.2423437E0,1.2422563E0,2.1950552E1,5.508038E2,3.994918E0,6.991991E0,2.1712886E3,1.8156808E2,6.5859503E2,1.2107129E3,5.4441565E2,3.8310272E1,9.967809E1,1.3655835E3,4.7489874E2,1.1744391E3,1.2171587E3,1.2104924E3,8.0617535E2,3.0082968E2,1.2450676E0,1.2710406E1,1.021773E2,3.6063107E2,2.8630919E1,6.519879E1],"tree_param":{"num_deleted":"0","num_feature":"11","num_nodes":"63","size_leaf_vector":"1"}},{"base_weights":[-1.2978059E-4,-1.6147587E-2,7.8251645E-2,-5.7718523E-2,1.1467245E-2,1.6125344E-1,-1.1243198E-2,-3.6574888E-1,-4.88392E-2,-1.0327205E-2,6.908257E-2,2.0395836E-1,-7.082667E-2,2.4282068E-2,-2.542706E-1,9.682214E-2,-4.5377403E-1,-7.01164E-2,3.6679775E-2,-3.292454E-4,-2.4450924E-1,1.1263875E-1,-1.0787317E-1,2.1920076E-1,-4.6359187E-1,1.5209329E-1,-1.860335E-1,-5.0852746E-1,3.920387E-2,-1.0337398E0,-1.7446764E-1,-4.4022314E-2,1.3234243E-2,-3.1569924E-2,-7.6658153E-3,-6.1562285E-4,-6.585385E-3,5.1346775E-3,-7.0512365E-3,-7.1119564E-3,8.648787E-4,-2.9999479E-3,-2.7964815E-2,8.793661E-3,-2.3636362E-3,4.9976294E-4,-2.326394E-2,8.137941E-3,1.9858632E-2,-3.2571148E-2,4.7155082E-2,-3.352817E-3,4.2851545E-2,1.4639325E-2,-1.687212E-2,-4.6389148E-2,2.8691163E-2,6.6714883E-3,-2.6433493E-3,-7.710381E-3,-7.748594E-2,-1.7366862E-3,-2.351881E-2],"categories":[],"categories_nodes":[],"categories_segments":[],"categories_sizes":[],"default_left":[0,0,0,0,0,0,0,0,0,0,0,0,0,0,0,0,0,0,0,0,0,0,0,0,0,0,0,0,0,0,0,0,0,0,0,0,0,0,0,0,0,0,0,0,0,0,0,0,0,0,0,0,0,0,0,0,0,0,0,0,0,0,0],"id":20,"left_children":[1,3,5,7,9,11,13,15,17,19,21,23,25,27,29,31,33,35,37,39,41,43,45,47,49,51,53,55,57,59,61,-1,-1,-1,-1,-1,-1,-1,-1,-1,-1,-1,-1,-1,-1,-1,-1,-1,-1,-1,-1,-1,-1,-1,-1,-1,-1,-1,-1,-1,-1,-1,-1],"loss_changes":[1.631895E1,1.2390131E1,1.6384914E1,1.1764605E1,8.144629E0,1.1355894E1,9.176663E0,4.952305E0,7.6236677E0,1.1019337E1,1.37325735E1,9.9383545E0,4.6147127E0,7.3950486E0,8.251581E0,3.5297453E0,5.3174324E0,1.1940144E1,9.8110485E0,1.1295739E1,1.1159002E1,1.4458313E1,1.4838713E1,9.436447E0,6.401414E0,9.542655E0,8.667114E0,1.2032548E1,7.8434944E0,5.382106E0,5.117772E0,0E0,0E0,0E0,0E0,0E0,0E0,0E0,0E0,0E0,0E0,0E0,0E0,0E0,0E0,0E0,0E0,0E0,0E0,0E0,0E0,0E0,0E0,0E0,0E0,0E0,0E0,0E0,0E0,0E0,0E0,0E0,0E0],"parents":[2147483647,0,0,1,1,2,2,3,3,4,4,5,5,6,6,7,7,8,8,9,9,10,10,11,11,12,12,13,13,14,14,15,15,16,16,17,17,18,18,19,19,20,20,21,21,22,22,23,23,24,24,25,25,26,26,27,27,28,28,29,29,30,30],"right_children":[2,4,6,8,10,12,14,16,18,20,22,24,26,28,30,32,34,36,38,40,42,44,46,48,50,52,54,56,58,60,62,-1,-1,-1,-1,-1,-1,-1,-1,-1,-1,-1,-1,-1,-1,-1,-1,-1,-1,-1,-1,-1,-1,-1,-1,-1,-1,-1,-1,-1,-1,-1,-1],"split_conditions":[1.1E1,2E0,1.2E1,-6.4845794E-1,4.9935997E-2,8.3264E1,3.0275257E-2,-2.5110738E-2,2.061857E-2,1.2911636E0,9E0,2.0936282E0,-2.6691894E-3,-6.276766E-2,-3.2491687E-1,2.0054763E-2,5.4102757E1,1E0,6.63306E1,-4.3241048E-1,1.7402294E1,2.5468466E1,8.2215E1,3.1265396E-1,2.9549027E-2,-1.9092238E-1,-9.367633E-3,3E0,-1.4678977E-3,4.8244312E1,9.634971E-2,-4.4022314E-2,1.3234243E-2,-3.1569924E-2,-7.6658153E-3,-6.1562285E-4,-6.585385E-3,5.1346775E-3,-7.0512365E-3,-7.1119564E-3,8.648787E-4,-2.9999479E-3,-2.7964815E-2,8.793661E-3,-2.3636362E-3,4.9976294E-4,-2.326394E-2,8.137941E-3,1.9858632E-2,-3.2571148E-2,4.7155082E-2,-3.352817E-3,4.2851545E-2,1.4639325E-2,-1.687212E-2,-4.6389148E-2,2.8691163E-2,6.6714883E-3,-2.6433493E-3,-7.710381E-3,-7.748594E-2,-1.7366862E-3,-2.351881E-2],"split_indices":[10,9,10,8,1,3,6,6,6,8,10,8,1,6,1,5,0,9,0,8,4,4,2,8,7,1,6,9,1,0,8,0,0,0,0,0,0,0,0,0,0,0,0,0,0,0,0,0,0,0,0,0,0,0,0,0,0,0,0,0,0,0,0],"split_type":[0,0,0,0,0,0,0,0,0,0,0,0,0,0,0,0,0,0,0,0,0,0,0,0,0,0,0,0,0,0,0,0,0,0,0,0,0,0,0,0,0,0,0,0,0,0,0,0,0,0,0,0,0,0,0,0,0,0,0,0,0,0,0],"sum_hessian":[1.2995979E4,1.079146E4,2.2045183E3,4.306872E3,6.484588E3,1.143334E3,1.0611843E3,1.1954585E2,4.187326E3,4.705452E3,1.7791354E3,9.6574835E2,1.7758562E2,9.266313E2,1.3455305E2,1.9096106E1,1.00449745E2,3.3532217E3,8.3410455E2,4.5137476E3,1.9170454E2,1.4280068E3,3.511285E2,9.44846E2,2.0902353E1,6.039802E1,1.171876E2,2.4342958E1,9.022883E2,1.1386143E1,1.2316691E2,2.1769917E0,1.6919115E1,6.2436886E1,3.8012863E1,1.730414E3,1.6228077E3,6.084859E2,2.256186E2,4.9793185E2,4.015816E3,1.2161269E2,7.009185E1,1.0232708E3,4.0473605E2,2.6477927E2,8.634924E1,7.188004E2,2.2604558E2,1.8913773E1,1.9885805E0,4.676476E1,1.3633262E1,2.7929317E1,8.925828E1,1.7649227E1,6.6937327E0,4.4570343E2,4.565849E2,4.69018E0,6.695963E0,8.441965E1,3.874726E1],"tree_param":{"num_deleted":"0","num_feature":"11","num_nodes":"63","size_leaf_vector":"1"}},{"base_weights":[-1.3784459E-4,-1.5356405E-2,7.435471E-2,-5.487102E-2,1.0886287E-2,1.5337193E-1,-1.0802493E-2,-3.5020137E-1,-4.6406906E-2,-2.9632223E-1,1.4736573E-2,2.7777746E-1,7.96264E-2,4.0436897E-2,-1.6625865E-1,-2.0864391E-1,-6.3077563E-1,3.345716E-1,-5.1129248E-2,3.1902763E-1,-6.0021526E-1,1.18169904E-1,2.9003257E-3,2.976019E-1,-7.043906E-1,1.3979563E-1,-1.6338374E-1,-2.120759E-1,7.994876E-2,-5.394916E-1,-5.4214753E-2,-3.8728558E-2,-3.1800685E-3,-5.6062855E-2,-7.6819994E-3,-9.123935E-3,2.9999087E-2,-3.764178E-3,1.2973662E-3,7.257822E-2,-1.8724597E-3,-5.9575874E-2,-1.837754E-2,1.0878454E-2,-4.7384663E-3,-3.0693572E-3,1.8678105E-3,-8.4052765E-4,1.8410502E-2,2.6716588E-2,-5.4542243E-2,-1.7608287E-2,8.213568E-3,1.2912271E-2,-1.4629356E-2,-7.278912E-4,-3.394064E-2,1.7335815E-2,2.4508764E-3,-5.311633E-2,-1.9210866E-2,-1.3288406E-2,4.8545753E-3],"categories":[],"categories_nodes":[],"categories_segments":[],"categories_sizes":[],"default_left":[0,0,0,0,0,0,0,0,0,0,0,0,0,0,0,0,0,0,0,0,0,0,0,0,0,0,0,0,0,0,0,0,0,0,0,0,0,0,0,0,0,0,0,0,0,0,0,0,0,0,0,0,0,0,0,0,0,0,0,0,0,0,0],"id":21,"left_children":[1,3,5,7,9,11,13,15,17,19,21,23,25,27,29,31,33,35,37,39,41,43,45,47,49,51,53,55,57,59,61,-1,-1,-1,-1,-1,-1,-1,-1,-1,-1,-1,-1,-1,-1,-1,-1,-1,-1,-1,-1,-1,-1,-1,-1,-1,-1,-1,-1,-1,-1,-1,-1],"loss_changes":[1.47322035E1,1.1190176E1,1.4835434E1,1.0748852E1,7.6752157E0,1.0469074E1,8.465721E0,4.6278505E0,7.55126E0,1.5211378E1,7.842023E0,8.488392E0,1.0540977E1,7.9938164E0,1.0987938E1,6.61121E0,9.116354E0,7.163803E0,7.7045E0,1.103805E1,7.006794E0,1.3942368E1,1.2736899E1,9.274189E0,4.752105E0,7.007086E0,7.8778057E0,9.9879465E0,5.6934667E0,4.5209293E0,6.547282E0,0E0,0E0,0E0,0E0,0E0,0E0,0E0,0E0,0E0,0E0,0E0,0E0,0E0,0E0,0E0,0E0,0E0,0E0,0E0,0E0,0E0,0E0,0E0,0E0,0E0,0E0,0E0,0E0,0E0,0E0,0E0,0E0],"parents":[2147483647,0,0,1,1,2,2,3,3,4,4,5,5,6,6,7,7,8,8,9,9,10,10,11,11,12,12,13,13,14,14,15,15,16,16,17,17,18,18,19,19,20,20,21,21,22,22,23,23,24,24,25,25,26,26,27,27,28,28,29,29,30,30],"right_children":[2,4,6,8,10,12,14,16,18,20,22,24,26,28,30,32,34,36,38,40,42,44,46,48,50,52,54,56,58,60,62,-1,-1,-1,-1,-1,-1,-1,-1,-1,-1,-1,-1,-1,-1,-1,-1,-1,-1,-1,-1,-1,-1,-1,-1,-1,-1,-1,-1,-1,-1,-1,-1],"split_conditions":[1.1E1,2E0,1.2E1,-6.4845794E-1,-7.047617E-2,9.384948E-3,1.600754E-2,8E0,-2.202439E0,3E0,3.6667755E1,2.0936282E0,6.6284996E1,2.9772131E0,5.372123E1,3E0,9E0,-2.2614436E-2,1.7023256E-2,-7.8307223E-1,3E0,4E0,4.9311546E1,-3.1427056E-1,4.8642E1,-5.152217E-1,-9.367633E-3,2.152357E1,-2.7777717E-2,1E0,2E0,-3.8728558E-2,-3.1800685E-3,-5.6062855E-2,-7.6819994E-3,-9.123935E-3,2.9999087E-2,-3.764178E-3,1.2973662E-3,7.257822E-2,-1.8724597E-3,-5.9575874E-2,-1.837754E-2,1.0878454E-2,-4.7384663E-3,-3.0693572E-3,1.8678105E-3,-8.4052765E-4,1.8410502E-2,2.6716588E-2,-5.4542243E-2,-1.7608287E-2,8.213568E-3,1.2912271E-2,-1.4629356E-2,-7.278912E-4,-3.394064E-2,1.7335815E-2,2.4508764E-3,-5.311633E-2,-1.9210866E-2,-1.3288406E-2,4.8545753E-3],"split_indices":[10,9,10,8,6,1,6,10,1,10,0,8,2,2,0,10,10,7,6,8,9,9,0,8,0,8,6,4,7,9,9,0,0,0,0,0,0,0,0,0,0,0,0,0,0,0,0,0,0,0,0,0,0,0,0,0,0,0,0,0,0,0,0],"split_type":[0,0,0,0,0,0,0,0,0,0,0,0,0,0,0,0,0,0,0,0,0,0,0,0,0,0,0,0,0,0,0,0,0,0,0,0,0,0,0,0,0,0,0,0,0,0,0,0,0,0,0,0,0,0,0,0,0,0,0,0,0,0,0],"sum_hessian":[1.2993142E4,1.0789649E4,2.2034924E3,4.3055415E3,6.484108E3,1.1425352E3,1.0609574E3,1.1883317E2,4.1867085E3,7.932004E1,6.404788E3,4.241856E2,7.1834955E2,7.9850476E2,2.6245264E2,8.014263E1,3.8690536E1,5.040493E1,4.136303E3,2.6205994E1,5.3114048E1,6.567415E2,5.7480464E3,4.164763E2,7.7093167E0,5.7612573E2,1.4222382E2,1.074493E2,6.910554E2,5.9715954E1,2.027367E2,1.5464178E1,6.467845E1,1.8412773E1,2.0277765E1,1.7203312E1,3.320162E1,3.1493738E3,9.869297E2,5.5383925E0,2.06676E1,1.3834174E1,3.9279873E1,4.47724E2,2.0901753E2,2.0054725E3,3.7425737E3,7.651646E1,3.3995984E2,1.7422234E0,5.9670935E0,2.667005E1,5.494556E2,3.3125774E1,1.09098045E2,7.622351E1,3.1225794E1,7.074068E1,6.2031476E2,1.2336209E1,4.7379745E1,8.422229E1,1.18514404E2],"tree_param":{"num_deleted":"0","num_feature":"11","num_nodes":"63","size_leaf_vector":"1"}},{"base_weights":[-1.4794774E-4,-3.9278116E-2,2.7080223E-2,-2.2971873E-1,-2.8999869E-2,3.46746E-2,-1.7694275E-1,-9.150266E-1,-1.513142E-1,1.069464E-1,-4.623854E-2,-1.2203259E-2,6.5258145E-2,-5.8091307E-1,-5.0598435E-2,-1.1348009E0,7.6386786E-1,2.735222E-1,-2.3310612E-1,7.0294565E-1,5.671924E-2,-3.862523E-1,-3.951688E-2,7.986921E-2,-5.2870516E-2,1.6033764E-1,1.8036492E-2,-3.2059515E-1,-1.1946092E0,-8.365238E-2,7.47966E-1,-5.9434038E-2,-1.0108358E-3,-3.2843973E-3,6.1567675E-2,-5.9121348E-2,1.8962594E-2,-1.411466E-2,2.6307413E-2,4.9129233E-2,8.658345E-3,-9.029943E-3,8.467705E-3,-4.118821E-2,-1.0892511E-2,-2.9884356E-3,2.1201337E-3,5.9861257E-3,-1.2131163E-2,1.8109642E-3,-4.73904E-3,1.8403733E-2,5.1857852E-3,-6.07112E-3,3.1236983E-3,-4.2690746E-2,1.6889531E-3,-6.705166E-2,2.0378206E-3,-7.11767E-3,1.4315279E-2,6.5182246E-2,7.7783973E-3],"categories":[],"categories_nodes":[],"categories_segments":[],"categories_sizes":[],"default_left":[0,0,0,0,0,0,0,0,0,0,0,0,0,0,0,0,0,0,0,0,0,0,0,0,0,0,0,0,0,0,0,0,0,0,0,0,0,0,0,0,0,0,0,0,0,0,0,0,0,0,0,0,0,0,0,0,0,0,0,0,0,0,0],"id":22,"left_children":[1,3,5,7,9,11,13,15,17,19,21,23,25,27,29,31,33,35,37,39,41,43,45,47,49,51,53,55,57,59,61,-1,-1,-1,-1,-1,-1,-1,-1,-1,-1,-1,-1,-1,-1,-1,-1,-1,-1,-1,-1,-1,-1,-1,-1,-1,-1,-1,-1,-1,-1,-1,-1],"loss_changes":[1.384251E1,1.0428185E1,1.1876725E1,1.4521589E1,1.1861221E1,1.0591715E1,1.401186E1,1.1128954E1,8.612785E0,1.7012293E1,1.0247611E1,1.0928194E1,2.0069714E1,1.00725765E1,5.62307E0,1.4770279E0,1.5611405E0,6.6335897E0,7.873377E0,6.375902E0,1.4102655E1,6.225891E0,7.3098173E0,1.1521885E1,7.56153E0,1.7410805E1,1.8526417E1,8.970585E0,3.5143147E0,4.453324E0,2.5865502E0,0E0,0E0,0E0,0E0,0E0,0E0,0E0,0E0,0E0,0E0,0E0,0E0,0E0,0E0,0E0,0E0,0E0,0E0,0E0,0E0,0E0,0E0,0E0,0E0,0E0,0E0,0E0,0E0,0E0,0E0,0E0,0E0],"parents":[2147483647,0,0,1,1,2,2,3,3,4,4,5,5,6,6,7,7,8,8,9,9,10,10,11,11,12,12,13,13,14,14,15,15,16,16,17,17,18,18,19,19,20,20,21,21,22,22,23,23,24,24,25,25,26,26,27,27,28,28,29,29,30,30],"right_children":[2,4,6,8,10,12,14,16,18,20,22,24,26,28,30,32,34,36,38,40,42,44,46,48,50,52,54,56,58,60,62,-1,-1,-1,-1,-1,-1,-1,-1,-1,-1,-1,-1,-1,-1,-1,-1,-1,-1,-1,-1,-1,-1,-1,-1,-1,-1,-1,-1,-1,-1,-1,-1],"split_conditions":[2.603096E-1,-5.7694626E-1,1.3498219E0,-2.491736E-2,-2.2167433E-2,2E0,4.613956E1,4.0587805E-2,-1.996606E-2,2E0,-4.5801487E-2,1.68918E1,3E0,4.6885824E-3,8.4564905E0,6.864364E0,-6.7937523E-1,1.0295104E-2,1.28212E1,5.3455956E1,-1.7385784E-1,-3.2945316E-2,4E0,4.5454547E-2,-1.8186449E-1,4.1812466E1,4E0,-2.2999938E-1,4E0,4E0,-1.006701E-2,-5.9434038E-2,-1.0108358E-3,-3.2843973E-3,6.1567675E-2,-5.9121348E-2,1.8962594E-2,-1.411466E-2,2.6307413E-2,4.9129233E-2,8.658345E-3,-9.029943E-3,8.467705E-3,-4.118821E-2,-1.0892511E-2,-2.9884356E-3,2.1201337E-3,5.9861257E-3,-1.2131163E-2,1.8109642E-3,-4.73904E-3,1.8403733E-2,5.1857852E-3,-6.07112E-3,3.1236983E-3,-4.2690746E-2,1.6889531E-3,-6.705166E-2,2.0378206E-3,-7.11767E-3,1.4315279E-2,6.5182246E-2,7.7783973E-3],"split_indices":[5,8,8,7,7,9,0,6,6,10,6,3,9,7,5,2,8,5,3,0,8,1,9,6,1,0,10,1,9,9,7,0,0,0,0,0,0,0,0,0,0,0,0,0,0,0,0,0,0,0,0,0,0,0,0,0,0,0,0,0,0,0,0],"split_type":[0,0,0,0,0,0,0,0,0,0,0,0,0,0,0,0,0,0,0,0,0,0,0,0,0,0,0,0,0,0,0,0,0,0,0,0,0,0,0,0,0,0,0,0,0,0,0,0,0,0,0,0,0,0,0,0,0,0,0,0,0,0,0],"sum_hessian":[1.2990261E4,5.329986E3,7.6602754E3,2.7184024E2,5.0581455E3,7.386169E3,2.7410638E2,2.6812296E1,2.4502794E2,5.6863293E2,4.4895127E3,2.9164666E3,4.469702E3,6.444705E1,2.0965933E2,2.3995293E1,2.8170047E0,3.9179756E1,2.0584818E2,4.318626E1,5.254467E2,8.593715E1,4.4035757E3,8.9321783E2,2.0232487E3,1.482445E3,2.9872573E3,4.6320988E1,1.8126064E1,2.0218578E2,7.4735665E0,2.2825413E1,1.1698791E0,1.325098E0,1.4919066E0,1.9631215E0,3.7216637E1,1.9391397E2,1.1934208E1,2.7706778E1,1.5479482E1,1.6892456E2,3.5652213E2,2.2802961E1,6.3134182E1,3.5309407E3,8.726349E2,7.955351E2,9.7682686E1,6.473326E2,1.3759161E3,3.163405E2,1.1661044E3,7.214345E2,2.2658228E3,1.7931084E1,2.8389904E1,1.612883E1,1.9972346E0,1.750292E2,2.7156572E1,3.2367861E0,4.2367806E0],"tree_param":{"num_deleted":"0","num_feature":"11","num_nodes":"63","size_leaf_vector":"1"}},{"base_weights":[-1.4463694E-4,-1.4494578E-2,7.0129804E-2,-1.1115525E-1,-4.5004636E-3,1.451649E-1,-1.0706624E-2,-2.0217107E-1,-3.6731903E-3,6.531298E-3,-1.0639622E-1,1.7014308E-1,-1.9961075E-1,2.2076128E-2,-2.3524839E-1,-2.9736638E-1,-7.343634E-2,5.51257E-2,-2.0389639E-1,-3.219549E-2,3.2999594E-2,4.3781003E-1,-1.2172259E-1,-9.294854E-3,2.1525982E-1,-1.2002278E-1,-1.2268009E0,-9.4715975E-2,9.088634E-2,-8.746344E-1,-1.4812624E-1,-2.4953656E-2,-8.248333E-3,6.196713E-3,-1.3948626E-2,1.898855E-3,4.4267267E-2,-1.8041411E-2,1.0969434E-2,6.700735E-3,-2.4435418E-3,1.0192484E-2,1.1739439E-3,4.218475E-2,-8.417609E-3,-1.4911692E-2,-2.713233E-3,9.696393E-3,-1.2802846E-2,1.7464465E-2,6.7316517E-3,-1.7030034E-2,6.4301486E-3,-1.0195784E-2,-7.389828E-2,4.7909087E-3,-1.3154714E-2,1.070668E-2,-7.0410693E-4,-1.9249089E-2,-7.5618654E-2,-3.6314745E-3,-3.849969E-2],"categories":[],"categories_nodes":[],"categories_segments":[],"categories_sizes":[],"default_left":[0,0,0,0,0,0,0,0,0,0,0,0,0,0,0,0,0,0,0,0,0,0,0,0,0,0,0,0,0,0,0,0,0,0,0,0,0,0,0,0,0,0,0,0,0,0,0,0,0,0,0,0,0,0,0,0,0,0,0,0,0,0,0],"id":23,"left_children":[1,3,5,7,9,11,13,15,17,19,21,23,25,27,29,31,33,35,37,39,41,43,45,47,49,51,53,55,57,59,61,-1,-1,-1,-1,-1,-1,-1,-1,-1,-1,-1,-1,-1,-1,-1,-1,-1,-1,-1,-1,-1,-1,-1,-1,-1,-1,-1,-1,-1,-1,-1,-1],"loss_changes":[1.3099542E1,1.0420376E1,1.3362428E1,9.887267E0,1.0991433E1,9.872417E0,7.817598E0,6.6852283E0,5.4795594E0,9.045176E0,8.020389E0,8.630304E0,6.199596E0,7.458553E0,7.4070096E0,8.311483E0,9.526777E0,5.089335E0,7.0973067E0,9.936191E0,8.521322E0,6.63285E0,1.1055313E1,1.0836134E1,9.156761E0,4.056051E0,1.105031E0,1.1066847E1,7.5562444E0,4.4205103E0,5.5908403E0,0E0,0E0,0E0,0E0,0E0,0E0,0E0,0E0,0E0,0E0,0E0,0E0,0E0,0E0,0E0,0E0,0E0,0E0,0E0,0E0,0E0,0E0,0E0,0E0,0E0,0E0,0E0,0E0,0E0,0E0,0E0,0E0],"parents":[2147483647,0,0,1,1,2,2,3,3,4,4,5,5,6,6,7,7,8,8,9,9,10,10,11,11,12,12,13,13,14,14,15,15,16,16,17,17,18,18,19,19,20,20,21,21,22,22,23,23,24,24,25,25,26,26,27,27,28,28,29,29,30,30],"right_children":[2,4,6,8,10,12,14,16,18,20,22,24,26,28,30,32,34,36,38,40,42,44,46,48,50,52,54,56,58,60,62,-1,-1,-1,-1,-1,-1,-1,-1,-1,-1,-1,-1,-1,-1,-1,-1,-1,-1,-1,-1,-1,-1,-1,-1,-1,-1,-1,-1,-1,-1,-1,-1],"split_conditions":[1.1E1,-4.4684798E-1,1.2E1,5.3455956E1,8.248877E-1,1.7924477E2,3.0275257E-2,1.17198E1,-4.8371106E-1,2.6882803E-1,2.8716341E1,1E0,9.189541E-1,5.1563248E1,-2.413397E-1,-8.4693115E-3,1.4727878E-3,8.421173E1,4E0,2E0,3.2275597E1,2.2592405E1,-2.8716331E-2,4.372228E-3,9.384948E-3,-2.117706E-2,1.0820991E1,-5.9312977E-2,5.41762E-3,5.2822396E-2,8.2215E1,-2.4953656E-2,-8.248333E-3,6.196713E-3,-1.3948626E-2,1.898855E-3,4.4267267E-2,-1.8041411E-2,1.0969434E-2,6.700735E-3,-2.4435418E-3,1.0192484E-2,1.1739439E-3,4.218475E-2,-8.417609E-3,-1.4911692E-2,-2.713233E-3,9.696393E-3,-1.2802846E-2,1.7464465E-2,6.7316517E-3,-1.7030034E-2,6.4301486E-3,-1.0195784E-2,-7.389828E-2,4.7909087E-3,-1.3154714E-2,1.070668E-2,-7.0410693E-4,-1.9249089E-2,-7.5618654E-2,-3.6314745E-3,-3.849969E-2],"split_indices":[10,8,10,0,8,2,6,3,8,5,0,9,8,0,1,7,6,0,9,10,0,4,1,6,1,8,4,1,1,6,2,0,0,0,0,0,0,0,0,0,0,0,0,0,0,0,0,0,0,0,0,0,0,0,0,0,0,0,0,0,0,0,0],"split_type":[0,0,0,0,0,0,0,0,0,0,0,0,0,0,0,0,0,0,0,0,0,0,0,0,0,0,0,0,0,0,0,0,0,0,0,0,0,0,0,0,0,0,0,0,0,0,0,0,0,0,0,0,0,0,0,0,0,0,0,0,0,0,0],"sum_hessian":[1.2987975E4,1.0786234E4,2.20174E3,1.00977844E3,9.776456E3,1.1414302E3,1.0603098E3,5.4629486E2,4.6348355E2,8.822249E3,9.542065E2,1.0647948E3,7.663531E1,9.260148E2,1.3429504E2,3.1330542E2,2.3298947E2,3.588314E2,1.0465216E2,3.5816226E3,5.240627E3,2.5381966E1,9.288245E2,2.1409438E2,8.5070044E2,7.2161026E1,4.4742804E0,3.431712E2,5.8284357E2,1.5020559E1,1.1927449E2,1.23059204E2,1.9024622E2,1.1905822E2,1.13931244E2,3.5259415E2,6.237265E0,7.645443E1,2.8197727E1,3.2592773E2,3.2556948E3,2.755446E2,4.9650825E3,1.4967736E1,1.0414229E1,2.5587578E2,6.729487E2,1.1752221E2,9.6572174E1,3.1827902E2,5.3242145E2,3.8041298E1,3.4119728E1,1.2392458E0,3.2350347E0,1.611957E2,1.819755E2,2.6760223E2,3.1524136E2,9.403934E0,5.6166263E0,1.07357704E2,1.1916786E1],"tree_param":{"num_deleted":"0","num_feature":"11","num_nodes":"63","size_leaf_vector":"1"}},{"base_weights":[-1.5163593E-4,-1.3769224E-2,6.656754E-2,-1.14549264E-1,-4.591059E-3,1.3796972E-1,-1.0303405E-2,9.593925E-2,-2.2832084E-1,2.3208568E-3,-1.7421468E-1,1.7621835E-1,-6.9663465E-2,-4.5108017E-2,1.8961379E-1,-1.1023097E-1,2.1912032E-1,3.2559252E-1,-2.7417004E-1,1.2918741E-2,-8.677158E-2,-4.13723E-1,-6.2344622E-2,4.254384E-1,1.4000532E-1,-5.4993683E-1,-2.3251364E-2,-9.806599E-3,-3.9030206E-1,6.620208E-2,7.938705E-1,-4.0737938E-2,2.0513637E-4,5.1506925E-2,8.488628E-3,-1.853627E-2,3.011829E-2,-1.747289E-2,-1.9895162E-3,-1.4019211E-2,8.216679E-4,7.843671E-3,-7.3912353E-3,-8.903801E-3,-4.6503156E-2,-7.3965094E-3,2.0656934E-2,5.7286145E-3,3.1856008E-2,7.7673905E-3,-2.4770455E-2,-4.5310527E-2,6.868688E-3,6.328758E-3,-9.547555E-3,4.6933754E-3,-7.1114586E-3,3.831526E-2,-2.2492183E-2,1.1481649E-2,-1.72806E-2,4.4789832E-2,-3.567691E-2],"categories":[],"categories_nodes":[],"categories_segments":[],"categories_sizes":[],"default_left":[0,0,0,0,0,0,0,0,0,0,0,0,0,0,0,0,0,0,0,0,0,0,0,0,0,0,0,0,0,0,0,0,0,0,0,0,0,0,0,0,0,0,0,0,0,0,0,0,0,0,0,0,0,0,0,0,0,0,0,0,0,0,0],"id":24,"left_children":[1,3,5,7,9,11,13,15,17,19,21,23,25,27,29,31,33,35,37,39,41,43,45,47,49,51,53,55,57,59,61,-1,-1,-1,-1,-1,-1,-1,-1,-1,-1,-1,-1,-1,-1,-1,-1,-1,-1,-1,-1,-1,-1,-1,-1,-1,-1,-1,-1,-1,-1,-1,-1],"loss_changes":[1.1800016E1,9.976432E0,1.2084883E1,2.1581367E1,1.1592051E1,9.077045E0,7.391584E0,8.064096E0,1.4938511E1,8.9716835E0,1.0346527E1,8.641846E0,3.9609833E0,1.101887E1,1.169477E1,9.594556E0,7.76987E0,8.925608E0,9.524448E0,8.7582035E0,1.50493145E1,1.4808878E1,1.0847015E1,7.94405E0,